{"learner":{"attributes":{"best_iteration":"31","best_score":"0.6901528523212095","scikit_learn":"{\"_estimator_type\": \"classifier\"}"},"feature_names":[],"feature_types":[],"gradient_booster":{"model":{"cats":{"enc":[],"feature_segments":[],"sorted_idx":[]},"gbtree_model_param":{"num_parallel_tree":"1","num_trees":"62"},"iteration_indptr":[0,1,2,3,4,5,6,7,8,9,10,11,12,13,14,15,16,17,18,19,20,21,22,23,24,25,26,27,28,29,30,31,32,33,34,35,36,37,38,39,40,41,42,43,44,45,46,47,48,49,50,51,52,53,54,55,56,57,58,59,60,61,62],"tree_info":[0,0,0,0,0,0,0,0,0,0,0,0,0,0,0,0,0,0,0,0,0,0,0,0,0,0,0,0,0,0,0,0,0,0,0,0,0,0,0,0,0,0,0,0,0,0,0,0,0,0,0,0,0,0,0,0,0,0,0,0,0,0],"trees":[{"base_weights":[-1.6208617E-3,1.0736279E-1,-1.8315405E-1,2.6078755E-1,4.1278806E-2,-5.6734562E-2,-2.3808488E-1,3.2638365E-1,1.1830986E-1,-6.806109E-2,8.583909E-2,1.7024611E-1,-9.082219E-2,-3.300985E-1,-1.6553348E-1,1.7965293E-2,8.339081E-3,1.2912539E-2,1.9531146E-3,-2.1751884E-3,-1.2161056E-2,7.86554E-3,1.0646208E-3,2.9118666E-2,6.810377E-3,-1.0130028E-2,-1.9514734E-3,-1.0214808E-2,-2.0197667E-2,-2.0475501E-2,-7.1335793E-3],"categories":[],"categories_nodes":[],"categories_segments":[],"categories_sizes":[],"default_left":[0,0,0,0,0,0,0,0,0,0,0,0,0,0,0,0,0,0,0,0,0,0,0,0,0,0,0,0,0,0,0],"id":0,"left_children":[1,3,5,7,9,11,13,15,17,19,21,23,25,27,29,-1,-1,-1,-1,-1,-1,-1,-1,-1,-1,-1,-1,-1,-1,-1,-1],"loss_changes":[7.7430646E2,2.4753986E2,1.01608215E2,6.810428E1,8.336027E1,3.450477E1,6.751807E1,2.5597961E1,2.5507645E1,2.0941128E1,5.588961E1,7.0244007E0,2.2208076E1,4.0776123E1,3.1147278E1,0E0,0E0,0E0,0E0,0E0,0E0,0E0,0E0,0E0,0E0,0E0,0E0,0E0,0E0,0E0,0E0],"parents":[2147483647,0,0,1,1,2,2,3,3,4,4,5,5,6,6,7,7,8,8,9,9,10,10,11,11,12,12,13,13,14,14],"right_children":[2,4,6,8,10,12,14,16,18,20,22,24,26,28,30,-1,-1,-1,-1,-1,-1,-1,-1,-1,-1,-1,-1,-1,-1,-1,-1],"split_conditions":[5.6147552E1,3.5682644E1,5.5921247E-4,3.8435754E-1,-2.1481803E-1,-1.688491E-3,-4.2662115E-4,-7.07946E-4,9.8511665E1,1.9739803E-3,-4.61163E-4,9.292E3,-1.8985696E-1,6.409377E1,7.9998974E-4,1.7965293E-2,8.339081E-3,1.2912539E-2,1.9531146E-3,-2.1751884E-3,-1.2161056E-2,7.86554E-3,1.0646208E-3,2.9118666E-2,6.810377E-3,-1.0130028E-2,-1.9514734E-3,-1.0214808E-2,-2.0197667E-2,-2.0475501E-2,-7.1335793E-3],"split_indices":[35,35,12,15,19,1,19,6,25,6,6,42,19,35,44,0,0,0,0,0,0,0,0,0,0,0,0,0,0,0,0],"split_type":[0,0,0,0,0,0,0,0,0,0,0,0,0,0,0,0,0,0,0,0,0,0,0,0,0,0,0,0,0,0,0],"sum_hessian":[3.9123918E4,2.4444916E4,1.4679E4,7.3502495E3,1.7094668E4,4.454848E3,1.0224151E4,5.0238286E3,2.3264207E3,4.9423315E3,1.2152336E4,5.752304E2,3.8796177E3,4.4935967E3,5.7305547E3,4.1543584E3,8.6947034E2,8.324716E2,1.4939491E3,4.345102E3,5.972296E2,5.7560537E3,6.3962817E3,3.549879E1,5.3973157E2,1.2177085E3,2.6619092E3,1.6741929E3,2.8194038E3,4.7998364E2,5.250571E3],"tree_param":{"num_deleted":"0","num_feature":"59","num_nodes":"31","size_leaf_vector":"1"}},{"base_weights":[-2.2153072E-3,9.7723484E-2,-1.7417753E-1,2.4809729E-1,3.2155212E-2,-8.554173E-2,-2.7891162E-1,3.2532606E-1,1.3325986E-1,-2.767387E-2,1.0072342E-1,8.751325E-2,-1.09056704E-1,-3.4739187E-1,-1.4176673E-1,2.164091E-2,1.2479717E-2,1.3907169E-2,4.077853E-3,1.9860754E-3,-5.245984E-3,1.0826687E-2,3.274611E-3,1.6549373E-2,1.5594128E-3,-9.166011E-3,-3.596205E-3,-1.0949326E-2,-1.9731065E-2,-1.2091452E-2,-3.6979876E-3],"categories":[],"categories_nodes":[],"categories_segments":[],"categories_sizes":[],"default_left":[0,0,0,0,0,0,0,0,0,0,0,0,0,0,0,0,0,0,0,0,0,0,0,0,0,0,0,0,0,0,0],"id":1,"left_children":[1,3,5,7,9,11,13,15,17,19,21,23,25,27,29,-1,-1,-1,-1,-1,-1,-1,-1,-1,-1,-1,-1,-1,-1,-1,-1],"loss_changes":[6.759276E2,2.4487344E2,1.3373532E2,6.624414E1,7.1171234E1,3.1986916E1,6.1437073E1,3.5433136E1,2.235683E1,4.8239628E1,3.2626717E1,1.2421678E1,1.8740463E1,2.5680359E1,1.4643566E1,0E0,0E0,0E0,0E0,0E0,0E0,0E0,0E0,0E0,0E0,0E0,0E0,0E0,0E0,0E0,0E0],"parents":[2147483647,0,0,1,1,2,2,3,3,4,4,5,5,6,6,7,7,8,8,9,9,10,10,11,11,12,12,13,13,14,14],"right_children":[2,4,6,8,10,12,14,16,18,20,22,24,26,28,30,-1,-1,-1,-1,-1,-1,-1,-1,-1,-1,-1,-1,-1,-1,-1,-1],"split_conditions":[5.6495697E1,3.592248E1,7.1531147E-1,3.809524E-1,8.043758E-5,-1.3387896E-3,1.03984625E-4,1.2037643E2,2.174498E4,-2.4617912E-4,-4.3093997E-1,1.921309E4,6.584977E-2,1E0,9.589833E1,2.164091E-2,1.2479717E-2,1.3907169E-2,4.077853E-3,1.9860754E-3,-5.245984E-3,1.0826687E-2,3.274611E-3,1.6549373E-2,1.5594128E-3,-9.166011E-3,-3.596205E-3,-1.0949326E-2,-1.9731065E-2,-1.2091452E-2,-3.6979876E-3],"split_indices":[35,35,18,18,19,6,10,24,42,6,58,42,19,52,25,0,0,0,0,0,0,0,0,0,0,0,0,0,0,0,0],"split_type":[0,0,0,0,0,0,0,0,0,0,0,0,0,0,0,0,0,0,0,0,0,0,0,0,0,0,0,0,0,0,0],"sum_hessian":[3.9316426E4,2.4863133E4,1.4453292E4,7.540541E3,1.7322592E4,7.8383643E3,6.6149272E3,4.497844E3,3.0426968E3,9.244616E3,8.077976E3,9.309607E2,6.907404E3,4.401953E3,2.2129744E3,1.8438865E3,2.653958E3,7.8939233E2,2.2533042E3,4.9314824E3,4.313134E3,1.8716067E3,6.206369E3,1.6698862E2,7.639721E2,2.2869646E3,4.620439E3,1.1969885E3,3.2049644E3,8.8274023E2,1.3302341E3],"tree_param":{"num_deleted":"0","num_feature":"59","num_nodes":"31","size_leaf_vector":"1"}},{"base_weights":[2.6206684E-3,1.4371516E-1,-1.1114702E-1,2.5947386E-1,7.7058926E-2,-2.6477084E-2,-2.0448042E-1,3.3938077E-1,1.6369472E-1,2.1507484E-1,3.8314324E-2,-8.405497E-2,8.091701E-2,-1.2176978E-1,-2.9694223E-1,2.2174314E-2,1.1943079E-2,1.012687E-2,1.6937964E-3,1.2880712E-2,1.5020854E-3,4.404208E-3,-2.3132388E-3,-2.5318377E-3,-1.3371236E-2,7.544481E-3,9.3322284E-5,-9.197424E-3,-2.1950777E-3,-2.0622967E-2,-1.1504088E-2],"categories":[],"categories_nodes":[],"categories_segments":[],"categories_sizes":[],"default_left":[0,0,0,0,0,0,0,0,0,0,0,0,0,0,0,0,0,0,0,0,0,0,0,0,0,0,0,0,0,0,0],"id":2,"left_children":[1,3,5,7,9,11,13,15,17,19,21,23,25,27,29,-1,-1,-1,-1,-1,-1,-1,-1,-1,-1,-1,-1,-1,-1,-1,-1],"loss_changes":[6.3070215E2,1.3491931E2,1.7159879E2,4.822E1,5.9300056E1,7.0616554E1,7.8460724E1,3.520587E1,1.4490608E1,1.8848564E1,3.6741886E1,4.519907E1,2.1861773E1,2.6220459E1,3.651248E1,0E0,0E0,0E0,0E0,0E0,0E0,0E0,0E0,0E0,0E0,0E0,0E0,0E0,0E0,0E0,0E0],"parents":[2147483647,0,0,1,1,2,2,3,3,4,4,5,5,6,6,7,7,8,8,9,9,10,10,11,11,12,12,13,13,14,14],"right_children":[2,4,6,8,10,12,14,16,18,20,22,24,26,28,30,-1,-1,-1,-1,-1,-1,-1,-1,-1,-1,-1,-1,-1,-1,-1,-1],"split_conditions":[-2.9276218E-4,-2.763466E-1,5.4330593E1,3.2688335E-1,1.271042E-1,1.1814516E-1,7.23448E-1,1.4971571E2,1.255747E0,6.856666E4,-4.998543E-4,5.9276736E-1,7.19471E-3,9.535606E-1,2.503424E1,2.2174314E-2,1.1943079E-2,1.012687E-2,1.6937964E-3,1.2880712E-2,1.5020854E-3,4.404208E-3,-2.3132388E-3,-2.5318377E-3,-1.3371236E-2,7.544481E-3,9.3322284E-5,-9.197424E-3,-2.1950777E-3,-2.0622967E-2,-1.1504088E-2],"split_indices":[6,41,34,18,18,19,18,24,29,42,1,58,45,29,36,0,0,0,0,0,0,0,0,0,0,0,0,0,0,0,0],"split_type":[0,0,0,0,0,0,0,0,0,0,0,0,0,0,0,0,0,0,0,0,0,0,0,0,0,0,0,0,0,0,0],"sum_hessian":[3.92792E4,1.753714E4,2.1742057E4,6.3974785E3,1.1139662E4,1.1409107E4,1.0332949E4,3.4751013E3,2.922377E3,2.4310867E3,8.708576E3,7.4339136E3,3.9751938E3,5.465896E3,4.8670537E3,1.6938308E3,1.7812706E3,2.2412698E3,6.8110724E2,1.9706627E3,4.6042395E2,5.4897793E3,3.2187966E3,6.2979736E3,1.1359398E3,2.0995535E3,1.8756404E3,3.0281936E3,2.4377021E3,1.769327E3,3.0977266E3],"tree_param":{"num_deleted":"0","num_feature":"59","num_nodes":"31","size_leaf_vector":"1"}},{"base_weights":[1.3868491E-3,1.3071366E-1,-1.1599194E-1,2.3721938E-1,5.917316E-2,-4.7552176E-2,-2.0263238E-1,3.1313065E-1,1.18370205E-1,-4.4257276E-2,9.669319E-2,-8.87059E-2,2.5699325E-2,-1.0967514E-1,-2.9834953E-1,2.0371815E-2,1.2094934E-2,1.3459104E-2,3.2430624E-3,1.8951554E-5,-9.026078E-3,9.656693E-3,3.5985056E-3,-5.9573962E-3,-3.419038E-5,2.4532315E-3,-4.028292E-3,-7.40188E-3,4.6020034E-3,-2.0253344E-2,-1.0493243E-2],"categories":[],"categories_nodes":[],"categories_segments":[],"categories_sizes":[],"default_left":[0,0,0,0,0,0,0,0,0,0,0,0,0,0,0,0,0,0,0,0,0,0,0,0,0,0,0,0,0,0,0],"id":3,"left_children":[1,3,5,7,9,11,13,15,17,19,21,23,25,27,29,-1,-1,-1,-1,-1,-1,-1,-1,-1,-1,-1,-1,-1,-1,-1,-1],"loss_changes":[5.9473846E2,1.4169168E2,1.2145773E2,6.690448E1,4.340207E1,3.4695644E1,7.9985504E1,2.948236E1,2.3224953E1,1.8235199E1,1.9220642E1,1.9610123E1,1.0233712E1,3.576923E1,4.100409E1,0E0,0E0,0E0,0E0,0E0,0E0,0E0,0E0,0E0,0E0,0E0,0E0,0E0,0E0,0E0,0E0],"parents":[2147483647,0,0,1,1,2,2,3,3,4,4,5,5,6,6,7,7,8,8,9,9,10,10,11,11,12,12,13,13,14,14],"right_children":[2,4,6,8,10,12,14,16,18,20,22,24,26,28,30,-1,-1,-1,-1,-1,-1,-1,-1,-1,-1,-1,-1,-1,-1,-1,-1],"split_conditions":[4.977611E1,3.592248E1,6.300635E1,3.9333057E-1,-2.4939755E-1,1.218638E-1,7.1531147E-1,1.2629E2,2.174498E4,1.1267086E0,1.0027721E-1,9.49489E-4,2.796543E2,1.7740903E0,2.8753841E1,2.0371815E-2,1.2094934E-2,1.3459104E-2,3.2430624E-3,1.8951554E-5,-9.026078E-3,9.656693E-3,3.5985056E-3,-5.9573962E-3,-3.419038E-5,2.4532315E-3,-4.028292E-3,-7.40188E-3,4.6020034E-3,-2.0253344E-2,-1.0493243E-2],"split_indices":[35,35,35,18,19,19,18,24,42,31,18,10,24,31,36,0,0,0,0,0,0,0,0,0,0,0,0,0,0,0,0],"split_type":[0,0,0,0,0,0,0,0,0,0,0,0,0,0,0,0,0,0,0,0,0,0,0,0,0,0,0,0,0,0,0],"sum_hessian":[3.916754E4,1.8639105E4,2.0528434E4,7.4790825E3,1.1160023E4,1.1479629E4,9.048804E3,4.553858E3,2.9252249E3,2.9633862E3,8.196638E3,7.358255E3,4.1213745E3,4.6013276E3,4.447476E3,1.9433607E3,2.610497E3,7.559061E2,2.1693186E3,2.2304136E3,7.329727E2,1.6572946E3,6.539343E3,5.4576304E3,1.9006245E3,3.388436E3,7.3293854E2,3.871356E3,7.299715E2,2.0027997E3,2.4446763E3],"tree_param":{"num_deleted":"0","num_feature":"59","num_nodes":"31","size_leaf_vector":"1"}},{"base_weights":[1.2072083E-3,1.4895603E-1,-8.759224E-2,1.928856E-1,2.2698287E-2,-2.5466997E-2,-1.9327149E-1,2.6919782E-1,1.2750985E-1,5.5897232E-2,-1.1951008E-1,-7.044007E-2,3.9908987E-2,-6.727512E-2,-2.7059236E-1,1.874435E-2,9.656714E-3,9.884144E-3,4.0039103E-3,1.0332187E-3,1.0726977E-2,1.1588022E-3,-1.7692124E-2,8.676056E-5,-6.1080363E-3,1.4122161E-2,1.3936436E-3,-6.5296977E-3,1.3843633E-3,-1.7432055E-2,-1.0332083E-2],"categories":[],"categories_nodes":[],"categories_segments":[],"categories_sizes":[],"default_left":[0,0,0,0,0,0,0,0,0,0,0,0,0,0,0,0,0,0,0,0,0,0,0,0,0,0,0,0,0,0,0],"id":4,"left_children":[1,3,5,7,9,11,13,15,17,19,21,23,25,27,29,-1,-1,-1,-1,-1,-1,-1,-1,-1,-1,-1,-1,-1,-1,-1,-1],"loss_changes":[5.1452747E2,8.143057E1,1.6052864E2,5.389682E1,1.7968163E1,4.542196E1,8.782828E1,3.94718E1,1.9268951E1,1.7068945E1,2.435973E1,3.429477E1,1.7994839E1,2.0906387E1,2.707306E1,0E0,0E0,0E0,0E0,0E0,0E0,0E0,0E0,0E0,0E0,0E0,0E0,0E0,0E0,0E0,0E0],"parents":[2147483647,0,0,1,1,2,2,3,3,4,4,5,5,6,6,7,7,8,8,9,9,10,10,11,11,12,12,13,13,14,14],"right_children":[2,4,6,8,10,12,14,16,18,20,22,24,26,28,30,-1,-1,-1,-1,-1,-1,-1,-1,-1,-1,-1,-1,-1,-1,-1,-1],"split_conditions":[4.534907E1,6.062697E-1,6.300635E1,3.3583607E1,1.3602261E-3,7.248412E-2,6.062697E-1,1.2629E2,2.884039E4,2.1963788E-3,-1.5570892E-3,5.464087E-5,-7.070188E-1,4.3794303E-3,2.9662796E1,1.874435E-2,9.656714E-3,9.884144E-3,4.0039103E-3,1.0332187E-3,1.0726977E-2,1.1588022E-3,-1.7692124E-2,8.676056E-5,-6.1080363E-3,1.4122161E-2,1.3936436E-3,-6.5296977E-3,1.3843633E-3,-1.7432055E-2,-1.0332083E-2],"split_indices":[35,18,35,35,6,19,18,24,43,40,40,1,58,44,36,0,0,0,0,0,0,0,0,0,0,0,0,0,0,0,0],"split_type":[0,0,0,0,0,0,0,0,0,0,0,0,0,0,0,0,0,0,0,0,0,0,0,0,0,0,0,0,0,0,0],"sum_hessian":[3.9202344E4,1.4719388E4,2.4482957E4,1.0912115E4,3.8072725E3,1.5428646E4,9.05431E3,5.0206704E3,5.891445E3,3.09484E3,7.1243256E2,9.14949E3,6.2791562E3,3.4517979E3,5.6025117E3,2.0874287E3,2.9332417E3,2.3612126E3,3.5302322E3,2.5421982E3,5.526418E2,4.4295386E2,2.6947867E2,3.813423E3,5.3360674E3,2.8763995E2,5.991516E3,2.0761326E3,1.3756652E3,2.5060742E3,3.0964377E3],"tree_param":{"num_deleted":"0","num_feature":"59","num_nodes":"31","size_leaf_vector":"1"}},{"base_weights":[2.2501575E-3,8.899114E-2,-1.4687516E-1,1.9689146E-1,2.2085791E-2,-7.110427E-2,-2.1769263E-1,2.5369248E-1,1.0206023E-1,8.457821E-2,-3.8791254E-2,8.500736E-2,-9.886294E-2,-1.1256948E-1,-2.885078E-1,1.5396716E-2,7.5592794E-3,6.260683E-3,-8.592284E-3,8.191608E-3,1.0249859E-3,6.6464575E-4,-5.081492E-3,6.80446E-3,-3.7061728E-3,-3.188688E-3,-8.928559E-3,-4.1834153E-3,-1.3027891E-2,-1.5407686E-2,-2.5662445E-3],"categories":[],"categories_nodes":[],"categories_segments":[],"categories_sizes":[],"default_left":[0,0,0,0,0,0,0,0,0,0,0,0,0,0,0,0,0,0,0,0,0,0,0,0,0,0,0,0,0,0,0],"id":5,"left_children":[1,3,5,7,9,11,13,15,17,19,21,23,25,27,29,-1,-1,-1,-1,-1,-1,-1,-1,-1,-1,-1,-1,-1,-1,-1,-1],"loss_changes":[5.069487E2,1.786879E2,7.695743E1,5.0579132E1,5.8308243E1,3.0285458E1,5.481714E1,3.221814E1,2.2677036E1,3.821563E1,2.5462454E1,8.650682E0,1.6287655E1,1.2412975E1,2.02323E1,0E0,0E0,0E0,0E0,0E0,0E0,0E0,0E0,0E0,0E0,0E0,0E0,0E0,0E0,0E0,0E0],"parents":[2147483647,0,0,1,1,2,2,3,3,4,4,5,5,6,6,7,7,8,8,9,9,10,10,11,11,12,12,13,13,14,14],"right_children":[2,4,6,8,10,12,14,16,18,20,22,24,26,28,30,-1,-1,-1,-1,-1,-1,-1,-1,-1,-1,-1,-1,-1,-1,-1,-1],"split_conditions":[5.6495697E1,3.885452E1,6.664688E-1,4.23253E-1,2.4409665E-1,-3.6083884E-4,1E0,1E0,2.0581856E-3,-4.61163E-4,1E0,1E0,3.2450196E-1,4.8231298E-1,7.416528E-3,1.5396716E-2,7.5592794E-3,6.260683E-3,-8.592284E-3,8.191608E-3,1.0249859E-3,6.6464575E-4,-5.081492E-3,6.80446E-3,-3.7061728E-3,-3.188688E-3,-8.928559E-3,-4.1834153E-3,-1.3027891E-2,-1.5407686E-2,-2.5662445E-3],"split_indices":[35,35,18,18,15,1,52,52,6,6,52,50,15,58,0,0,0,0,0,0,0,0,0,0,0,0,0,0,0,0,0],"split_type":[0,0,0,0,0,0,0,0,0,0,0,0,0,0,0,0,0,0,0,0,0,0,0,0,0,0,0,0,0,0,0],"sum_hessian":[3.9185598E4,2.4780418E4,1.4405182E4,9.475051E3,1.5305366E4,6.970868E3,7.434313E3,5.9138906E3,3.5611604E3,7.559626E3,7.74574E3,1.0453877E3,5.9254805E3,3.0032058E3,4.431107E3,3.8544954E3,2.059395E3,3.2894653E3,2.716951E2,3.3691648E3,4.1904614E3,4.2287456E3,3.5169946E3,7.9666284E2,2.487249E2,4.129248E3,1.7962327E3,2.524727E3,4.7847888E2,4.0868772E3,3.4422983E2],"tree_param":{"num_deleted":"0","num_feature":"59","num_nodes":"31","size_leaf_vector":"1"}},{"base_weights":[-2.6067905E-3,1.1223603E-1,-1.0257958E-1,1.7989157E-1,3.6242083E-2,-3.0807702E-2,-1.6699149E-1,2.501284E-1,8.8074006E-2,7.176264E-2,-6.22056E-2,1.2876512E-1,-5.2817687E-2,-6.755082E-2,-2.458404E-1,1.6060637E-2,8.971474E-3,2.9634717E-3,1.1573572E-2,5.3176675E-3,-3.086453E-3,-1.5619419E-2,-2.15271E-3,1.1964286E-2,1.6521876E-3,-9.857619E-4,-6.4907703E-3,1.7509317E-2,-3.8566857E-3,-9.354653E-3,-1.579344E-2],"categories":[],"categories_nodes":[],"categories_segments":[],"categories_sizes":[],"default_left":[0,0,0,0,0,0,0,0,0,0,0,0,0,0,0,0,0,0,0,0,0,0,0,0,0,0,0,0,0,0,0],"id":6,"left_children":[1,3,5,7,9,11,13,15,17,19,21,23,25,27,29,-1,-1,-1,-1,-1,-1,-1,-1,-1,-1,-1,-1,-1,-1,-1,-1],"loss_changes":[4.4971713E2,9.345392E1,9.6608E1,6.167636E1,3.00942E1,3.4800297E1,8.609067E1,2.6596497E1,1.6943722E1,2.9293861E1,1.0475648E1,1.2366352E1,2.2081024E1,1.94402E1,2.4480682E1,0E0,0E0,0E0,0E0,0E0,0E0,0E0,0E0,0E0,0E0,0E0,0E0,0E0,0E0,0E0,0E0],"parents":[2147483647,0,0,1,1,2,2,3,3,4,4,5,5,6,6,7,7,8,8,9,9,10,10,11,11,12,12,13,13,14,14],"right_children":[2,4,6,8,10,12,14,16,18,20,22,24,26,28,30,-1,-1,-1,-1,-1,-1,-1,-1,-1,-1,-1,-1,-1,-1,-1,-1],"split_conditions":[4.9271187E1,3.9333057E-1,6.147917E-1,1E0,-1.2344202E-3,-1.5735729E-3,1E0,3.3863792E1,4.9989896E2,1.3910047E-3,2.4226583E-3,-2.0509327E-3,3.1929955E-1,-4.0854355E-3,6.7201805E1,1.6060637E-2,8.971474E-3,2.9634717E-3,1.1573572E-2,5.3176675E-3,-3.086453E-3,-1.5619419E-2,-2.15271E-3,1.1964286E-2,1.6521876E-3,-9.857619E-4,-6.4907703E-3,1.7509317E-2,-3.8566857E-3,-9.354653E-3,-1.579344E-2],"split_indices":[35,18,18,52,9,1,52,35,56,6,44,6,15,8,35,0,0,0,0,0,0,0,0,0,0,0,0,0,0,0,0],"split_type":[0,0,0,0,0,0,0,0,0,0,0,0,0,0,0,0,0,0,0,0,0,0,0,0,0,0,0,0,0,0,0],"sum_hessian":[3.9160848E4,1.822008E4,2.0940766E4,9.628271E3,8.591809E3,9.915357E3,1.1025408E4,5.4441787E3,4.1840933E3,6.3222227E3,2.2695857E3,1.1934119E3,8.721945E3,4.8857227E3,6.139686E3,2.6988018E3,2.7453767E3,3.4959033E3,6.8819006E2,5.0278906E3,1.2943323E3,1.5222566E2,2.1173599E3,5.4555927E2,6.4785266E2,6.113101E3,2.6088445E3,1.03239555E2,4.782483E3,3.3565168E3,2.7831692E3],"tree_param":{"num_deleted":"0","num_feature":"59","num_nodes":"31","size_leaf_vector":"1"}},{"base_weights":[-2.8333566E-3,1.0158022E-1,-9.759516E-2,1.8466927E-1,4.591707E-2,-4.6427634E-2,-1.8342865E-1,2.5553128E-1,9.96557E-2,1.8210936E-1,2.2067346E-2,1.4414558E-2,-9.311012E-2,-9.821298E-2,-2.6888266E-1,1.6519992E-2,8.938993E-3,1.0031938E-2,2.4294993E-3,1.5502147E-2,4.7996286E-3,3.195295E-3,-1.9847618E-3,6.224545E-3,-5.0039706E-4,-1.193841E-5,-7.113257E-3,1.818559E-2,-5.6213667E-3,-1.5060991E-2,-3.991396E-3],"categories":[],"categories_nodes":[],"categories_segments":[],"categories_sizes":[],"default_left":[0,0,0,0,0,0,0,0,0,0,0,0,0,0,0,0,0,0,0,0,0,0,0,0,0,0,0,0,0,0,0],"id":7,"left_children":[1,3,5,7,9,11,13,15,17,19,21,23,25,27,29,-1,-1,-1,-1,-1,-1,-1,-1,-1,-1,-1,-1,-1,-1,-1,-1],"loss_changes":[3.874362E2,8.586766E1,8.990369E1,4.447586E1,3.6048088E1,3.666208E1,5.5277588E1,2.25289E1,1.7272709E1,1.7702911E1,2.4623905E1,1.5137917E1,3.3168175E1,2.5224518E1,2.2825806E1,0E0,0E0,0E0,0E0,0E0,0E0,0E0,0E0,0E0,0E0,0E0,0E0,0E0,0E0,0E0,0E0],"parents":[2147483647,0,0,1,1,2,2,3,3,4,4,5,5,6,6,7,7,8,8,9,9,10,10,11,11,12,12,13,13,14,14],"right_children":[2,4,6,8,10,12,14,16,18,20,22,24,26,28,30,-1,-1,-1,-1,-1,-1,-1,-1,-1,-1,-1,-1,-1,-1,-1,-1],"split_conditions":[4.977611E1,3.592248E1,6.497978E1,3.391747E-1,1.0027721E-1,1E0,7.1531147E-1,1.59305E2,9.4611664E1,-8.174853E-4,1E0,-1.5735729E-3,3.2258064E-1,-3.5161788E-3,7.2318954E1,1.6519992E-2,8.938993E-3,1.0031938E-2,2.4294993E-3,1.5502147E-2,4.7996286E-3,3.195295E-3,-1.9847618E-3,6.224545E-3,-5.0039706E-4,-1.193841E-5,-7.113257E-3,1.818559E-2,-5.6213667E-3,-1.5060991E-2,-3.991396E-3],"split_indices":[35,35,35,18,18,52,18,25,25,11,52,1,18,0,34,0,0,0,0,0,0,0,0,0,0,0,0,0,0,0,0],"split_type":[0,0,0,0,0,0,0,0,0,0,0,0,0,0,0,0,0,0,0,0,0,0,0,0,0,0,0,0,0,0,0],"sum_hessian":[3.9147434E4,1.862001E4,2.0527426E4,7.457924E3,1.1162086E4,1.287291E4,7.6545156E3,4.05562E3,3.4023037E3,1.6521998E3,9.509887E3,5.581052E3,7.2918584E3,3.843843E3,3.8106726E3,2.038033E3,2.017587E3,1.1311714E3,2.2711323E3,6.5481085E2,9.973889E2,5.6789375E3,3.8309487E3,1.0171306E3,4.5639214E3,2.532476E3,4.759382E3,1.08981255E2,3.7348618E3,3.2470244E3,5.636482E2],"tree_param":{"num_deleted":"0","num_feature":"59","num_nodes":"31","size_leaf_vector":"1"}},{"base_weights":[-3.29401E-3,9.7319E-2,-9.520991E-2,2.0456265E-1,5.582971E-2,-3.6315564E-2,-1.6950648E-1,2.7826175E-1,1.1323379E-1,-4.333001E-2,8.840093E-2,-6.877168E-2,3.8023867E-2,-2.4373692E-1,-8.227987E-2,1.8062443E-2,1.041877E-2,1.4648912E-2,3.4291432E-3,6.7902E-3,-3.1407967E-3,6.415938E-3,1.7548263E-3,-6.635453E-3,-5.7728426E-4,4.404461E-3,-7.4558257E-4,-6.417124E-3,-1.4685297E-2,2.4915738E-3,-6.4959335E-3],"categories":[],"categories_nodes":[],"categories_segments":[],"categories_sizes":[],"default_left":[0,0,0,0,0,0,0,0,0,0,0,0,0,0,0,0,0,0,0,0,0,0,0,0,0,0,0,0,0,0,0],"id":8,"left_children":[1,3,5,7,9,11,13,15,17,19,21,23,25,27,29,-1,-1,-1,-1,-1,-1,-1,-1,-1,-1,-1,-1,-1,-1,-1,-1],"loss_changes":[3.6295444E2,8.303021E1,8.953075E1,3.4564102E1,4.3731567E1,2.7688541E1,5.8252502E1,1.5742706E1,1.8352049E1,1.1623859E1,2.1489067E1,2.907056E1,9.291817E0,2.757019E1,2.6421574E1,0E0,0E0,0E0,0E0,0E0,0E0,0E0,0E0,0E0,0E0,0E0,0E0,0E0,0E0,0E0,0E0],"parents":[2147483647,0,0,1,1,2,2,3,3,4,4,5,5,6,6,7,7,8,8,9,9,10,10,11,11,12,12,13,13,14,14],"right_children":[2,4,6,8,10,12,14,16,18,20,22,24,26,28,30,-1,-1,-1,-1,-1,-1,-1,-1,-1,-1,-1,-1,-1,-1,-1,-1],"split_conditions":[4.977611E1,3.1837963E1,6.300635E1,1.2037888E0,-2.7229357E-1,6.052075E-4,6.584977E-2,1.2343429E2,1.3177122E-3,-4.8769666E-3,1E0,-1.7849518E-2,1.5312785E2,1E0,1.1277949E2,1.8062443E-2,1.041877E-2,1.4648912E-2,3.4291432E-3,6.7902E-3,-3.1407967E-3,6.415938E-3,1.7548263E-3,-6.635453E-3,-5.7728426E-4,4.404461E-3,-7.4558257E-4,-6.417124E-3,-1.4685297E-2,2.4915738E-3,-6.4959335E-3],"split_indices":[35,35,35,31,19,10,19,24,45,1,52,19,24,52,55,0,0,0,0,0,0,0,0,0,0,0,0,0,0,0,0],"split_type":[0,0,0,0,0,0,0,0,0,0,0,0,0,0,0,0,0,0,0,0,0,0,0,0,0,0,0,0,0,0,0],"sum_hessian":[3.92373E4,1.8727082E4,2.0510217E4,5.211743E3,1.3515339E4,1.1452671E4,9.057546E3,2.8725308E3,2.3392126E3,3.333744E3,1.0181595E4,7.9817266E3,3.4709443E3,4.8822666E3,4.1752793E3,1.2971115E3,1.5754193E3,4.5547455E2,1.883738E3,3.1909937E2,3.0146445E3,5.807077E3,4.3745176E3,3.7584365E3,4.2232905E3,1.7918341E3,1.6791102E3,1.4867468E3,3.39552E3,1.1009412E3,3.0743381E3],"tree_param":{"num_deleted":"0","num_feature":"59","num_nodes":"31","size_leaf_vector":"1"}},{"base_weights":[-1.1760477E-3,6.729376E-2,-1.2993008E-1,1.5347806E-1,1.3566253E-2,-4.525225E-2,-1.9229509E-1,2.6112622E-1,1.141703E-1,1.9058074E-1,-3.4637045E-4,1.18933484E-1,-7.3791154E-2,-2.4928366E-1,-1.0173463E-1,1.5353019E-2,3.843315E-3,6.269253E-4,7.6776366E-3,6.414052E-3,2.2588814E-2,2.2180052E-3,-2.2834078E-3,3.4409629E-3,2.6727527E-2,-2.2594882E-3,-9.200476E-3,-1.8479755E-2,-1.1049248E-2,-1.8891193E-3,-8.233491E-3],"categories":[],"categories_nodes":[],"categories_segments":[],"categories_sizes":[],"default_left":[0,0,0,0,0,0,0,0,0,0,0,0,0,0,0,0,0,0,0,0,0,0,0,0,0,0,0,0,0,0,0],"id":9,"left_children":[1,3,5,7,9,11,13,15,17,19,21,23,25,27,29,-1,-1,-1,-1,-1,-1,-1,-1,-1,-1,-1,-1,-1,-1,-1,-1],"loss_changes":[3.4566595E2,1.1830641E2,7.161905E1,4.102112E1,3.903903E1,2.7118813E1,3.994333E1,2.1635406E1,2.8673698E1,1.7920174E1,2.9643867E1,1.6995907E1,1.5299114E1,1.5332825E1,1.2003122E1,0E0,0E0,0E0,0E0,0E0,0E0,0E0,0E0,0E0,0E0,0E0,0E0,0E0,0E0,0E0,0E0],"parents":[2147483647,0,0,1,1,2,2,3,3,4,4,5,5,6,6,7,7,8,8,9,9,10,10,11,11,12,12,13,13,14,14],"right_children":[2,4,6,8,10,12,14,16,18,20,22,24,26,28,30,-1,-1,-1,-1,-1,-1,-1,-1,-1,-1,-1,-1,-1,-1,-1,-1],"split_conditions":[5.735756E1,3.9274384E1,6.147917E-1,1.2657426E-1,-7.524249E-1,-3.6083884E-4,1E0,6.9E4,1E0,5.295931E-3,2.4409665E-1,7.1035355E1,3.8746372E-1,4.607857E1,2.776232E-1,1.5353019E-2,3.843315E-3,6.269253E-4,7.6776366E-3,6.414052E-3,2.2588814E-2,2.2180052E-3,-2.2834078E-3,3.4409629E-3,2.6727527E-2,-2.2594882E-3,-9.200476E-3,-1.8479755E-2,-1.1049248E-2,-1.8891193E-3,-8.233491E-3],"split_indices":[35,35,18,15,58,1,53,42,53,40,15,35,15,24,58,0,0,0,0,0,0,0,0,0,0,0,0,0,0,0,0],"split_type":[0,0,0,0,0,0,0,0,0,0,0,0,0,0,0,0,0,0,0,0,0,0,0,0,0,0,0,0,0,0,0],"sum_hessian":[3.9192918E4,2.5582879E4,1.3610039E4,9.813364E3,1.5769514E4,5.782861E3,7.8271787E3,2.6105261E3,7.2028384E3,1.1497161E3,1.4619798E4,8.487994E2,4.9340615E3,4.7918936E3,3.0352854E3,2.0825962E3,5.2792993E2,2.0205397E3,5.182299E3,9.374113E2,2.1230476E2,7.3488047E3,7.2709927E3,7.648137E2,8.398566E1,3.9302852E3,1.0037763E3,8.942717E2,3.8976216E3,1.517328E3,1.5179574E3],"tree_param":{"num_deleted":"0","num_feature":"59","num_nodes":"31","size_leaf_vector":"1"}},{"base_weights":[6.000534E-3,7.558786E-2,-1.098065E-1,1.9197865E-1,4.4204343E-2,-5.2389707E-2,-1.7840081E-1,2.7208635E-1,9.3443684E-2,-1.4997383E-2,9.978064E-2,-8.604955E-2,6.5956034E-2,-2.4237773E-1,-7.980077E-2,1.7975502E-2,1.03519885E-2,1.2800521E-2,2.1761917E-3,1.3524716E-3,-3.5525083E-3,9.565174E-3,3.3677504E-3,-5.0401073E-3,6.121297E-3,1.006629E-2,-0E0,-1.98898E-2,-1.0529992E-2,-4.5687626E-3,1.7229255E-2],"categories":[],"categories_nodes":[],"categories_segments":[],"categories_sizes":[],"default_left":[0,0,0,0,0,0,0,0,0,0,0,0,0,0,0,0,0,0,0,0,0,0,0,0,0,0,0,0,0,0,0],"id":10,"left_children":[1,3,5,7,9,11,13,15,17,19,21,23,25,27,29,-1,-1,-1,-1,-1,-1,-1,-1,-1,-1,-1,-1,-1,-1,-1,-1],"loss_changes":[3.1551004E2,8.908176E1,5.7585266E1,4.0452347E1,6.3532864E1,3.1966131E1,4.17462E1,1.5284851E1,1.862887E1,2.2047464E1,2.9219315E1,1.9252914E1,1.5908559E1,1.8951767E1,1.2891548E1,0E0,0E0,0E0,0E0,0E0,0E0,0E0,0E0,0E0,0E0,0E0,0E0,0E0,0E0,0E0,0E0],"parents":[2147483647,0,0,1,1,2,2,3,3,4,4,5,5,6,6,7,7,8,8,9,9,10,10,11,11,12,12,13,13,14,14],"right_children":[2,4,6,8,10,12,14,16,18,20,22,24,26,28,30,-1,-1,-1,-1,-1,-1,-1,-1,-1,-1,-1,-1,-1,-1,-1,-1],"split_conditions":[5.6147552E1,3.1837963E1,7.1531147E-1,1.2037888E0,-3.744506E-2,1.2197134E0,-1.9822094E-4,1.1150166E2,1.3717143E-1,1E0,-4.2729896E-1,2E0,-5.3459937E2,4.3633335E1,1.9962985E-2,1.7975502E-2,1.03519885E-2,1.2800521E-2,2.1761917E-3,1.3524716E-3,-3.5525083E-3,9.565174E-3,3.3677504E-3,-5.0401073E-3,6.121297E-3,1.006629E-2,-0E0,-1.98898E-2,-1.0529992E-2,-4.5687626E-3,1.7229255E-2],"split_indices":[35,35,18,31,19,29,10,25,15,52,58,53,55,25,44,0,0,0,0,0,0,0,0,0,0,0,0,0,0,0,0],"split_type":[0,0,0,0,0,0,0,0,0,0,0,0,0,0,0,0,0,0,0,0,0,0,0,0,0,0,0,0,0,0,0],"sum_hessian":[3.9145566E4,2.445885E4,1.4686715E4,5.1822393E3,1.9276611E4,8.0074683E3,6.6792466E3,2.8479424E3,2.334297E3,9.326921E3,9.94969E3,6.2419497E3,1.7655184E3,4.0402715E3,2.6389749E3,1.1987686E3,1.6491738E3,5.3884485E2,1.7954521E3,5.320561E3,4.0063599E3,2.5884192E3,7.361271E3,5.836326E3,4.0562366E2,5.77518E2,1.1880004E3,6.7074677E2,3.3695247E3,2.575025E3,6.395012E1],"tree_param":{"num_deleted":"0","num_feature":"59","num_nodes":"31","size_leaf_vector":"1"}},{"base_weights":[2.6923984E-5,9.7689405E-2,-6.897112E-2,1.8044183E-1,4.773837E-2,-2.1025596E-2,-1.5552306E-1,2.3258364E-1,7.318431E-2,-3.714968E-2,8.084085E-2,-6.3156806E-2,5.5448707E-2,-2.3964316E-1,-9.046721E-2,1.5710775E-2,7.2982884E-3,1.4934884E-3,1.1678833E-2,7.703139E-3,-3.8808652E-3,1.53422E-2,3.4881819E-3,-5.445626E-3,1.0189222E-3,3.9151222E-3,-3.8712006E-3,-1.3856429E-2,-3.311521E-3,-2.023944E-2,-3.6412254E-3],"categories":[],"categories_nodes":[],"categories_segments":[],"categories_sizes":[],"default_left":[0,0,0,0,0,0,0,0,0,0,0,0,0,0,0,0,0,0,0,0,0,0,0,0,0,0,0,0,0,0,0],"id":11,"left_children":[1,3,5,7,9,11,13,15,17,19,21,23,25,27,29,-1,-1,-1,-1,-1,-1,-1,-1,-1,-1,-1,-1,-1,-1,-1,-1],"loss_changes":[2.634007E2,6.6639404E1,9.482625E1,3.363272E1,2.8463514E1,4.7543186E1,4.4185516E1,2.8194992E1,1.3621525E1,2.1888592E1,1.7748127E1,3.6487415E1,1.5922216E1,2.2617645E1,2.4955704E1,0E0,0E0,0E0,0E0,0E0,0E0,0E0,0E0,0E0,0E0,0E0,0E0,0E0,0E0,0E0,0E0],"parents":[2147483647,0,0,1,1,2,2,3,3,4,4,5,5,6,6,7,7,8,8,9,9,10,10,11,11,12,12,13,13,14,14],"right_children":[2,4,6,8,10,12,14,16,18,20,22,24,26,28,30,-1,-1,-1,-1,-1,-1,-1,-1,-1,-1,-1,-1,-1,-1,-1,-1],"split_conditions":[-4.8373564E-4,3.5682644E1,6.300635E1,4.06363E-1,-2.272353E-1,1.1814516E-1,1.9759977E-1,1.6549E2,1.3335461E-3,1.344781E4,2.2736666E1,1E0,6.9788853E-3,1.6816995E0,2.3353333E1,1.5710775E-2,7.2982884E-3,1.4934884E-3,1.1678833E-2,7.703139E-3,-3.8808652E-3,1.53422E-2,3.4881819E-3,-5.445626E-3,1.0189222E-3,3.9151222E-3,-3.8712006E-3,-1.3856429E-2,-3.311521E-3,-2.023944E-2,-3.6412254E-3],"split_indices":[6,35,35,18,19,19,14,25,40,43,25,53,4,30,25,0,0,0,0,0,0,0,0,0,0,0,0,0,0,0,0],"split_type":[0,0,0,0,0,0,0,0,0,0,0,0,0,0,0,0,0,0,0,0,0,0,0,0,0,0,0,0,0,0,0],"sum_hessian":[3.9074543E4,1.6182137E4,2.2892404E4,6.0786816E3,1.0103455E4,1.4743178E4,8.1492275E3,4.0800527E3,1.9986292E3,2.825898E3,7.277557E3,9.515079E3,5.2280986E3,3.541335E3,4.6078926E3,2.087775E3,1.9922778E3,1.5832362E3,4.1539288E2,4.8683255E2,2.3390654E3,3.295768E2,6.9479805E3,6.154472E3,3.3606067E3,4.4690195E3,7.590794E2,2.9046912E3,6.366438E2,2.3604932E2,4.3718433E3],"tree_param":{"num_deleted":"0","num_feature":"59","num_nodes":"31","size_leaf_vector":"1"}},{"base_weights":[-1.5596016E-3,1.0566876E-1,-5.5034857E-2,2.116717E-1,7.089245E-2,-1.2307798E-2,-1.3374911E-1,5.351022E-1,1.9241868E-1,1.7411199E-1,2.2963032E-2,-5.2649967E-2,6.048392E-2,-2.096747E-2,-1.637299E-1,3.189882E-2,-0E0,1.0833285E-2,-8.864839E-5,1.4023575E-2,5.5839787E-3,6.285455E-3,-1.7215122E-3,-1.7774579E-3,-1.0148963E-2,3.934152E-3,-6.5333876E-3,-4.537435E-3,6.863814E-3,-9.030471E-3,1.9974627E-3],"categories":[],"categories_nodes":[],"categories_segments":[],"categories_sizes":[],"default_left":[0,0,0,0,0,0,0,0,0,0,0,0,0,0,0,0,0,0,0,0,0,0,0,0,0,0,0,0,0,0,0],"id":12,"left_children":[1,3,5,7,9,11,13,15,17,19,21,23,25,27,29,-1,-1,-1,-1,-1,-1,-1,-1,-1,-1,-1,-1,-1,-1,-1,-1],"loss_changes":[2.2477072E2,4.771498E1,8.785272E1,1.8757278E1,4.8433228E1,4.985527E1,3.0898544E1,9.398033E0,1.4540405E1,2.0108658E1,3.9786736E1,2.7831877E1,2.1033659E1,2.1485842E1,2.513147E1,0E0,0E0,0E0,0E0,0E0,0E0,0E0,0E0,0E0,0E0,0E0,0E0,0E0,0E0,0E0,0E0],"parents":[2147483647,0,0,1,1,2,2,3,3,4,4,5,5,6,6,7,7,8,8,9,9,10,10,11,11,12,12,13,13,14,14],"right_children":[2,4,6,8,10,12,14,16,18,20,22,24,26,28,30,-1,-1,-1,-1,-1,-1,-1,-1,-1,-1,-1,-1,-1,-1,-1,-1],"split_conditions":[-7.8863435E-4,2.1526E4,2.453E-1,1.0114246E-3,1.2657426E-1,1.1814516E-1,4.06363E-1,1.281383E-2,1E0,-4.8762813E-1,4.381261E-3,7.493498E-1,4.4867094E-3,4.72426E-3,6.7605795E-3,3.189882E-2,-0E0,1.0833285E-2,-8.864839E-5,1.4023575E-2,5.5839787E-3,6.285455E-3,-1.7215122E-3,-1.7774579E-3,-1.0148963E-2,3.934152E-3,-6.5333876E-3,-4.537435E-3,6.863814E-3,-9.030471E-3,1.9974627E-3],"split_indices":[12,42,41,45,15,19,18,33,21,58,45,58,6,44,16,0,0,0,0,0,0,0,0,0,0,0,0,0,0,0,0],"split_type":[0,0,0,0,0,0,0,0,0,0,0,0,0,0,0,0,0,0,0,0,0,0,0,0,0,0,0,0,0,0,0],"sum_hessian":[3.9197957E4,1.3035549E4,2.616241E4,3.20675E3,9.828799E3,1.6969594E4,9.192816E3,1.697204E2,3.0370295E3,3.1059272E3,6.7228716E3,1.0928172E4,6.0414214E3,1.9393236E3,7.2534927E3,1.4100607E2,2.8714327E1,2.7039785E3,3.3305115E2,1.1364309E3,1.9694965E3,2.4135608E3,4.3093105E3,9.823524E3,1.1046473E3,5.5236963E3,5.177252E2,1.3517086E3,5.8761505E2,6.7034346E3,5.5005786E2],"tree_param":{"num_deleted":"0","num_feature":"59","num_nodes":"31","size_leaf_vector":"1"}},{"base_weights":[-7.420251E-4,1.0379597E-1,-7.2335586E-2,1.4955762E-1,3.0502392E-2,-1.6426295E-2,-1.4513521E-1,2.2370023E-1,9.672981E-2,9.180171E-2,-2.1393359E-2,-5.110005E-2,4.7204748E-2,-1.8439868E-1,-4.6138592E-2,1.6081782E-2,8.583239E-3,9.10058E-3,2.758003E-3,1.2231237E-2,2.4652542E-3,-2.0123185E-3,9.637781E-3,2.4797737E-3,-4.4274325E-3,5.0438303E-3,-6.2517164E-4,2.3276541E-4,-9.993318E-3,-8.0456175E-3,-2.347319E-4],"categories":[],"categories_nodes":[],"categories_segments":[],"categories_sizes":[],"default_left":[0,0,0,0,0,0,0,0,0,0,0,0,0,0,0,0,0,0,0,0,0,0,0,0,0,0,0,0,0,0,0],"id":13,"left_children":[1,3,5,7,9,11,13,15,17,19,21,23,25,27,29,-1,-1,-1,-1,-1,-1,-1,-1,-1,-1,-1,-1,-1,-1,-1,-1],"loss_changes":[2.9252792E2,5.307115E1,9.428082E1,3.783319E1,1.9548689E1,2.9005571E1,3.887683E1,1.9883667E1,1.9994251E1,1.7931087E1,1.3247379E1,3.2179337E1,1.4922211E1,2.1262817E1,1.3502325E1,0E0,0E0,0E0,0E0,0E0,0E0,0E0,0E0,0E0,0E0,0E0,0E0,0E0,0E0,0E0,0E0],"parents":[2147483647,0,0,1,1,2,2,3,3,4,4,5,5,6,6,7,7,8,8,9,9,10,10,11,11,12,12,13,13,14,14],"right_children":[2,4,6,8,10,12,14,16,18,20,22,24,26,28,30,-1,-1,-1,-1,-1,-1,-1,-1,-1,-1,-1,-1,-1,-1,-1,-1],"split_conditions":[-5.3176715E-4,3.271183E-1,6.0036304E1,-4.3799475E-1,3.885452E1,1.1814516E-1,2.154195E-1,2.948135E4,4.649168E-3,1.9484E4,2.3693668E-2,-2.6762192E2,7.19471E-3,-1.0939235E-3,5.8226665E1,1.6081782E-2,8.583239E-3,9.10058E-3,2.758003E-3,1.2231237E-2,2.4652542E-3,-2.0123185E-3,9.637781E-3,2.4797737E-3,-4.4274325E-3,5.0438303E-3,-6.2517164E-4,2.3276541E-4,-9.993318E-3,-8.0456175E-3,-2.347319E-4],"split_indices":[6,15,35,58,35,19,19,42,45,42,4,56,45,0,25,0,0,0,0,0,0,0,0,0,0,0,0,0,0,0,0],"split_type":[0,0,0,0,0,0,0,0,0,0,0,0,0,0,0,0,0,0,0,0,0,0,0,0,0,0,0,0,0,0,0],"sum_hessian":[3.9080008E4,1.58785625E4,2.3201445E4,9.763664E3,6.1148975E3,1.3134309E4,1.0067137E4,4.0477039E3,5.7159604E3,2.810526E3,3.3043718E3,8.512427E3,4.621882E3,7.197923E3,2.8692136E3,1.3887773E3,2.6589265E3,1.8597239E3,3.8562366E3,6.0120544E2,2.2093206E3,3.045027E3,2.5934473E2,2.299901E3,6.2125264E3,2.4409792E3,2.1809026E3,5.3974274E2,6.65818E3,7.509662E2,2.1182473E3],"tree_param":{"num_deleted":"0","num_feature":"59","num_nodes":"31","size_leaf_vector":"1"}},{"base_weights":[1.8393394E-3,9.399553E-2,-5.44171E-2,1.5260206E-1,3.118304E-2,-8.854001E-3,-1.2383663E-1,2.1709095E-1,1.0307944E-1,1.1206157E-1,-1.27431E-2,-4.720052E-2,6.406415E-2,-2.2267514E-1,-8.653869E-2,1.1400229E-2,-9.603464E-3,7.437756E-3,1.0510067E-3,8.094239E-3,1.6185278E-3,9.148202E-3,-1.4943698E-3,-5.282001E-3,1.0443701E-3,6.0070083E-3,-1.8815625E-5,-7.0166565E-3,-1.5672557E-2,-6.469119E-3,-5.8172015E-4],"categories":[],"categories_nodes":[],"categories_segments":[],"categories_sizes":[],"default_left":[0,0,0,0,0,0,0,0,0,0,0,0,0,0,0,0,0,0,0,0,0,0,0,0,0,0,0,0,0,0,0],"id":14,"left_children":[1,3,5,7,9,11,13,15,17,19,21,23,25,27,29,-1,-1,-1,-1,-1,-1,-1,-1,-1,-1,-1,-1,-1,-1,-1,-1],"loss_changes":[2.0315294E2,5.4485336E1,7.6787605E1,2.4083878E1,2.5635418E1,4.1094704E1,3.5088806E1,1.5084991E1,1.6157703E1,9.855148E0,1.5486923E1,3.846936E1,1.8399223E1,1.8965103E1,2.2334599E1,0E0,0E0,0E0,0E0,0E0,0E0,0E0,0E0,0E0,0E0,0E0,0E0,0E0,0E0,0E0,0E0],"parents":[2147483647,0,0,1,1,2,2,3,3,4,4,5,5,6,6,7,7,8,8,9,9,10,10,11,11,12,12,13,13,14,14],"right_children":[2,4,6,8,10,12,14,16,18,20,22,24,26,28,30,-1,-1,-1,-1,-1,-1,-1,-1,-1,-1,-1,-1,-1,-1,-1,-1],"split_conditions":[-7.07946E-4,3.146922E-1,5.563363E1,-4.5979825E-1,-3.8889935E-3,1.218638E-1,-4.3388373E-1,1.3982419E-2,3.5665788E-2,6.1048603E-1,-6.3045543E-1,8.0092075E-5,7.19471E-3,7.1531147E-1,1.0465055E0,1.1400229E-2,-9.603464E-3,7.437756E-3,1.0510067E-3,8.094239E-3,1.6185278E-3,9.148202E-3,-1.4943698E-3,-5.282001E-3,1.0443701E-3,6.0070083E-3,-1.8815625E-5,-7.0166565E-3,-1.5672557E-2,-6.469119E-3,-5.8172015E-4],"split_indices":[6,18,34,58,2,19,48,16,41,18,33,10,45,18,29,0,0,0,0,0,0,0,0,0,0,0,0,0,0,0,0],"split_type":[0,0,0,0,0,0,0,0,0,0,0,0,0,0,0,0,0,0,0,0,0,0,0,0,0,0,0,0,0,0,0],"sum_hessian":[3.916802E4,1.48522705E4,2.4315748E4,7.671443E3,7.180828E3,1.4692473E4,9.623275E3,3.3160881E3,4.355355E3,2.5326406E3,4.6481875E3,9.638968E3,5.053505E3,2.6223794E3,7.000896E3,3.234472E3,8.161615E1,2.7875205E3,1.5678344E3,1.5474574E3,9.8518335E2,3.657989E2,4.2823887E3,5.193416E3,4.445552E3,2.7081086E3,2.3453962E3,1.3875195E3,1.2348597E3,4.4427495E3,2.5581465E3],"tree_param":{"num_deleted":"0","num_feature":"59","num_nodes":"31","size_leaf_vector":"1"}},{"base_weights":[-1.8906243E-3,7.1321934E-2,-6.869338E-2,-1.8425643E-2,1.0479423E-1,6.933941E-3,-1.02571286E-1,4.4030327E-2,-6.8249084E-2,3.850672E-2,1.4604987E-1,4.3642676E-1,-8.29336E-4,-1.639592E-1,-2.9917017E-2,-3.4349987E-3,4.795421E-3,-9.059965E-3,-1.3359151E-3,2.672661E-3,-1.368229E-2,1.0340733E-2,4.991333E-3,-2.9086634E-3,2.8294278E-2,4.278047E-4,-1.1778622E-2,1.9390471E-2,-8.431475E-3,1.3336013E-3,-3.7773408E-3],"categories":[],"categories_nodes":[],"categories_segments":[],"categories_sizes":[],"default_left":[0,0,0,0,0,0,0,0,0,0,0,0,0,0,0,0,0,0,0,0,0,0,0,0,0,0,0,0,0,0,0],"id":15,"left_children":[1,3,5,7,9,11,13,15,17,19,21,23,25,27,29,-1,-1,-1,-1,-1,-1,-1,-1,-1,-1,-1,-1,-1,-1,-1,-1],"loss_changes":[1.91207E2,5.6109413E1,5.2493675E1,1.578867E1,3.6951477E1,2.1517252E1,6.2814636E1,1.3160395E1,1.3025362E1,2.4250954E1,2.3086197E1,8.006578E0,1.3924541E1,1.9825546E1,1.6806705E1,0E0,0E0,0E0,0E0,0E0,0E0,0E0,0E0,0E0,0E0,0E0,0E0,0E0,0E0,0E0,0E0],"parents":[2147483647,0,0,1,1,2,2,3,3,4,4,5,5,6,6,7,7,8,8,9,9,10,10,11,11,12,12,13,13,14,14],"right_children":[2,4,6,8,10,12,14,16,18,20,22,24,26,28,30,-1,-1,-1,-1,-1,-1,-1,-1,-1,-1,-1,-1,-1,-1,-1,-1],"split_conditions":[4.977611E1,-2.4939755E-1,4.3182647E-1,1.06805E2,1E0,-5.6424593E-3,-4.0866507E-4,5.7314213E-5,1.8807574E-3,7.896245E-1,-3.5601137E-3,1.8473334E2,1E0,-3.7283443E-3,9.576678E-2,-3.4349987E-3,4.795421E-3,-9.059965E-3,-1.3359151E-3,2.672661E-3,-1.368229E-2,1.0340733E-2,4.991333E-3,-2.9086634E-3,2.8294278E-2,4.278047E-4,-1.1778622E-2,1.9390471E-2,-8.431475E-3,1.3336013E-3,-3.7773408E-3],"split_indices":[35,19,18,24,53,1,10,10,27,18,8,25,47,8,33,0,0,0,0,0,0,0,0,0,0,0,0,0,0,0,0],"split_type":[0,0,0,0,0,0,0,0,0,0,0,0,0,0,0,0,0,0,0,0,0,0,0,0,0,0,0,0,0,0,0],"sum_hessian":[3.9085766E4,1.8640918E4,2.0444848E4,5.0562417E3,1.3584677E4,6.3171733E3,1.4127674E4,2.2350342E3,2.8212075E3,5.2243545E3,8.360323E3,1.0954369E2,6.20763E3,7.646692E3,6.480982E3,6.9780884E2,1.5372252E3,7.474616E2,2.0737458E3,4.9926436E3,2.3171063E2,3.5951516E3,4.7651714E3,2.169318E1,8.785052E1,5.969516E3,2.3811368E2,5.893991E1,7.587752E3,2.884211E3,3.5967712E3],"tree_param":{"num_deleted":"0","num_feature":"59","num_nodes":"31","size_leaf_vector":"1"}},{"base_weights":[5.291326E-3,8.907436E-2,-4.4823106E-2,1.3093145E-1,2.1555131E-2,-6.4321607E-3,-1.2925321E-1,1.6728985E-1,6.557886E-2,3.5598767E-1,1.3366732E-2,-3.9054714E-2,4.7404815E-2,-1.9501625E-1,-6.8032525E-2,1.4399342E-2,6.7454847E-3,9.657732E-3,1.1101195E-3,1.1168408E-2,3.6482077E-2,4.8467675E-3,-1.1036498E-3,-4.252444E-3,4.0448745E-4,5.3026867E-3,-3.2830253E-4,-1.5345787E-2,-7.1562016E-3,-4.726674E-3,1.8224685E-3],"categories":[],"categories_nodes":[],"categories_segments":[],"categories_sizes":[],"default_left":[0,0,0,0,0,0,0,0,0,0,0,0,0,0,0,0,0,0,0,0,0,0,0,0,0,0,0,0,0,0,0],"id":16,"left_children":[1,3,5,7,9,11,13,15,17,19,21,23,25,27,29,-1,-1,-1,-1,-1,-1,-1,-1,-1,-1,-1,-1,-1,-1,-1,-1],"loss_changes":[1.6410353E2,4.118454E1,7.908572E1,2.1149857E1,1.4981888E1,2.953398E1,3.0395996E1,2.1987549E1,1.7710205E1,4.7270126E0,1.6340271E1,2.2815886E1,2.0156782E1,2.063379E1,1.1061811E1,0E0,0E0,0E0,0E0,0E0,0E0,0E0,0E0,0E0,0E0,0E0,0E0,0E0,0E0,0E0,0E0],"parents":[2147483647,0,0,1,1,2,2,3,3,4,4,5,5,6,6,7,7,8,8,9,9,10,10,11,11,12,12,13,13,14,14],"right_children":[2,4,6,8,10,12,14,16,18,20,22,24,26,28,30,-1,-1,-1,-1,-1,-1,-1,-1,-1,-1,-1,-1,-1,-1,-1,-1],"split_conditions":[-7.331063E-4,3.271183E-1,6.409377E1,-3.3348802E-4,2.0747143E1,4.8383774E-4,2.9669715E-2,6.1390713E1,8.072926E-2,1.124499E4,-5.2925046E-3,8.043758E-5,7.437107E-1,1.4264455E1,1.9982162E0,1.4399342E-2,6.7454847E-3,9.657732E-3,1.1101195E-3,1.1168408E-2,3.6482077E-2,4.8467675E-3,-1.1036498E-3,-4.252444E-3,4.0448745E-4,5.3026867E-3,-3.2830253E-4,-1.5345787E-2,-7.1562016E-3,-4.726674E-3,1.8224685E-3],"split_indices":[6,15,35,9,24,10,19,24,18,42,9,19,18,36,30,0,0,0,0,0,0,0,0,0,0,0,0,0,0,0,0],"split_type":[0,0,0,0,0,0,0,0,0,0,0,0,0,0,0,0,0,0,0,0,0,0,0,0,0,0,0,0,0,0,0],"sum_hessian":[3.906371E4,1.4626572E4,2.4437139E4,9.017105E3,5.609467E3,1.681051E4,7.6266294E3,5.778937E3,3.2381682E3,1.2606805E2,5.4833984E3,1.0480059E4,6.330451E3,3.6637642E3,3.9628652E3,1.207528E3,4.571409E3,8.114044E2,2.426764E3,1.0091567E2,2.5152372E1,1.6387312E3,3.8446675E3,5.3134478E3,5.166611E3,3.0403142E3,3.2901372E3,1.1468577E3,2.5169065E3,3.1690977E3,7.937675E2],"tree_param":{"num_deleted":"0","num_feature":"59","num_nodes":"31","size_leaf_vector":"1"}},{"base_weights":[-2.635725E-3,4.2744793E-2,-8.5007705E-2,1.23165175E-1,1.6064081E-2,3.3909503E-2,-1.08739495E-1,1.7017174E-1,2.011184E-2,3.771144E-2,-4.6088442E-2,-9.1828704E-2,8.162645E-2,-3.8305122E-2,-1.4744312E-1,-1.5098578E-2,8.812535E-3,1.016996E-2,-9.98345E-4,6.411162E-5,4.798153E-3,-1.3474909E-4,-7.0264037E-3,-6.571529E-3,1.5262839E-2,-1.0629931E-2,5.197017E-3,-4.3537538E-3,7.1317086E-4,-8.225382E-3,-1.1099268E-3],"categories":[],"categories_nodes":[],"categories_segments":[],"categories_sizes":[],"default_left":[0,0,0,0,0,0,0,0,0,0,0,0,0,0,0,0,0,0,0,0,0,0,0,0,0,0,0,0,0,0,0],"id":17,"left_children":[1,3,5,7,9,11,13,15,17,19,21,23,25,27,29,-1,-1,-1,-1,-1,-1,-1,-1,-1,-1,-1,-1,-1,-1,-1,-1],"loss_changes":[1.4608604E2,5.3885998E1,3.928121E1,3.013414E1,2.5462452E1,1.386859E1,3.136493E1,1.2465126E1,1.470745E1,2.9718754E1,1.984937E1,9.952936E0,1.1036301E1,1.0651924E1,1.574971E1,0E0,0E0,0E0,0E0,0E0,0E0,0E0,0E0,0E0,0E0,0E0,0E0,0E0,0E0,0E0,0E0],"parents":[2147483647,0,0,1,1,2,2,3,3,4,4,5,5,6,6,7,7,8,8,9,9,10,10,11,11,12,12,13,13,14,14],"right_children":[2,4,6,8,10,12,14,16,18,20,22,24,26,28,30,-1,-1,-1,-1,-1,-1,-1,-1,-1,-1,-1,-1,-1,-1,-1,-1],"split_conditions":[5.7004787E1,3.3863792E1,2.9825413E-1,1.3898442E0,7.5147927E-1,-4.3388373E-1,1E0,-1.4027726E-2,1.3896135E-3,5.5613933E-4,1E0,4.8383774E-4,-1.3202996E-2,1.9759977E-1,1.9982162E0,-1.5098578E-2,8.812535E-3,1.016996E-2,-9.98345E-4,6.411162E-5,4.798153E-3,-1.3474909E-4,-7.0264037E-3,-6.571529E-3,1.5262839E-2,-1.0629931E-2,5.197017E-3,-4.3537538E-3,7.1317086E-4,-8.225382E-3,-1.1099268E-3],"split_indices":[35,35,18,31,18,48,52,0,45,10,52,10,5,14,30,0,0,0,0,0,0,0,0,0,0,0,0,0,0,0,0],"split_type":[0,0,0,0,0,0,0,0,0,0,0,0,0,0,0,0,0,0,0,0,0,0,0,0,0,0,0,0,0,0,0],"sum_hessian":[3.9059305E4,2.5178297E4,1.3881006E4,6.258502E3,1.8919795E4,2.301946E3,1.1579061E4,4.289114E3,1.9693885E3,1.4045785E4,4.8740093E3,6.262211E2,1.6757249E3,4.1189736E3,7.4600864E3,4.9336727E1,4.239777E3,3.5418988E2,1.6151986E3,8.655263E3,5.390523E3,3.3503223E3,1.5236869E3,5.7476263E2,5.1458458E1,1.11962555E2,1.5637622E3,2.1448503E3,1.9741235E3,6.5571284E3,9.029581E2],"tree_param":{"num_deleted":"0","num_feature":"59","num_nodes":"31","size_leaf_vector":"1"}},{"base_weights":[4.2674965E-3,8.59411E-2,-4.5465715E-2,1.4906989E-1,4.5969803E-2,-1.6573114E-2,-1.2163475E-1,9.589077E-2,2.1713518E-1,1.60947E-1,2.4330338E-2,-6.671186E-2,1.4687624E-2,-1.526389E-1,4.9263906E-2,-1.1883108E-3,7.4088583E-3,1.2524689E-2,3.677329E-3,1.0007131E-2,-2.1927403E-3,2.9610782E-3,-2.7084497E-3,-8.541771E-4,-4.9918103E-3,1.322109E-3,-8.021644E-3,-1.0901012E-2,-4.365206E-3,-1.7038107E-4,1.5189401E-2],"categories":[],"categories_nodes":[],"categories_segments":[],"categories_sizes":[],"default_left":[0,0,0,0,0,0,0,0,0,0,0,0,0,0,0,0,0,0,0,0,0,0,0,0,0,0,0,0,0,0,0],"id":18,"left_children":[1,3,5,7,9,11,13,15,17,19,21,23,25,27,29,-1,-1,-1,-1,-1,-1,-1,-1,-1,-1,-1,-1,-1,-1,-1,-1],"loss_changes":[1.5873567E2,3.710093E1,5.327534E1,2.0300346E1,2.2375063E1,2.7666061E1,3.5459145E1,2.035264E1,1.1550163E1,1.1673538E1,2.0976927E1,1.1016987E1,2.2204811E1,2.3726837E1,1.4011975E1,0E0,0E0,0E0,0E0,0E0,0E0,0E0,0E0,0E0,0E0,0E0,0E0,0E0,0E0,0E0,0E0],"parents":[2147483647,0,0,1,1,2,2,3,3,4,4,5,5,6,6,7,7,8,8,9,9,10,10,11,11,12,12,13,13,14,14],"right_children":[2,4,6,8,10,12,14,16,18,20,22,24,26,28,30,-1,-1,-1,-1,-1,-1,-1,-1,-1,-1,-1,-1,-1,-1,-1,-1],"split_conditions":[-7.07946E-4,3.5424393E1,6.570298E1,-2.7712766E-2,8.459215E-2,1.6581404E-1,2.0943744E0,-2.2252093E-1,6.709083E4,5.252393E-1,5.145E4,7.5090134E-1,2.4909114E-2,2.3447463E-2,7.991047E-1,-1.1883108E-3,7.4088583E-3,1.2524689E-2,3.677329E-3,1.0007131E-2,-2.1927403E-3,2.9610782E-3,-2.7084497E-3,-8.541771E-4,-4.9918103E-3,1.322109E-3,-8.021644E-3,-1.0901012E-2,-4.365206E-3,-1.7038107E-4,1.5189401E-2],"split_indices":[6,35,35,19,18,14,30,49,43,19,43,31,45,19,33,0,0,0,0,0,0,0,0,0,0,0,0,0,0,0,0],"split_type":[0,0,0,0,0,0,0,0,0,0,0,0,0,0,0,0,0,0,0,0,0,0,0,0,0,0,0,0,0,0,0],"sum_hessian":[3.9059484E4,1.4788978E4,2.4270506E4,5.71861E3,9.070368E3,1.7609898E4,6.6606074E3,3.2253743E3,2.4932356E3,1.4242872E3,7.646081E3,6.77303E3,1.0836867E4,5.6432114E3,1.01739606E3,9.7582007E2,2.2495542E3,2.0145315E3,4.787042E2,1.1996843E3,2.2460294E2,5.302987E3,2.3430938E3,2.7262346E3,4.0467952E3,1.0164551E4,6.7231647E2,2.8071094E3,2.836102E3,8.4378613E2,1.7360997E2],"tree_param":{"num_deleted":"0","num_feature":"59","num_nodes":"31","size_leaf_vector":"1"}},{"base_weights":[-1.16648625E-4,6.889989E-2,-5.445008E-2,1.6350538E-1,4.0858276E-2,-1.8603051E-2,-1.0249613E-1,1.918462E-1,4.0230025E-2,-5.4322544E-2,6.9984384E-2,-4.048113E-2,6.2832855E-2,-1.6753463E-1,-1.9919045E-2,1.2845811E-2,6.561886E-3,3.783464E-4,1.6655091E-2,7.862478E-3,-4.3161954E-3,9.312721E-3,2.2385379E-3,-3.481124E-3,1.4389969E-3,3.6364947E-3,-1.691307E-2,-9.810495E-3,-2.752628E-3,-3.7352133E-3,2.3730684E-3],"categories":[],"categories_nodes":[],"categories_segments":[],"categories_sizes":[],"default_left":[0,0,0,0,0,0,0,0,0,0,0,0,0,0,0,0,0,0,0,0,0,0,0,0,0,0,0,0,0,0,0],"id":19,"left_children":[1,3,5,7,9,11,13,15,17,19,21,23,25,27,29,-1,-1,-1,-1,-1,-1,-1,-1,-1,-1,-1,-1,-1,-1,-1,-1],"loss_changes":[1.4636461E2,4.5355568E1,3.7500267E1,1.3423309E1,3.6827065E1,2.2316614E1,4.986666E1,1.1980606E1,6.779134E0,2.10158E1,2.954816E1,2.0012915E1,1.0360811E1,1.6492462E1,1.5254087E1,0E0,0E0,0E0,0E0,0E0,0E0,0E0,0E0,0E0,0E0,0E0,0E0,0E0,0E0,0E0,0E0],"parents":[2147483647,0,0,1,1,2,2,3,3,4,4,5,5,6,6,7,7,8,8,9,9,10,10,11,11,12,12,13,13,14,14],"right_children":[2,4,6,8,10,12,14,16,18,20,22,24,26,28,30,-1,-1,-1,-1,-1,-1,-1,-1,-1,-1,-1,-1,-1,-1,-1,-1],"split_conditions":[-3.1736997E-4,1.271042E-1,7.396184E-1,6.828633E4,5.2367784E-3,4.8383774E-4,1E0,5.228687E-2,1.870835E2,2.3507143E1,5.9545E1,3E0,1.0494734E-2,6.052075E-4,6.1152293E-3,1.2845811E-2,6.561886E-3,3.783464E-4,1.6655091E-2,7.862478E-3,-4.3161954E-3,9.312721E-3,2.2385379E-3,-3.481124E-3,1.4389969E-3,3.6364947E-3,-1.691307E-2,-9.810495E-3,-2.752628E-3,-3.7352133E-3,2.3730684E-3],"split_indices":[6,18,18,43,44,10,53,15,56,24,24,51,10,10,44,0,0,0,0,0,0,0,0,0,0,0,0,0,0,0,0],"split_type":[0,0,0,0,0,0,0,0,0,0,0,0,0,0,0,0,0,0,0,0,0,0,0,0,0,0,0,0,0,0,0],"sum_hessian":[3.9025395E4,1.7181283E4,2.1844111E4,3.914594E3,1.326669E4,1.2526141E4,9.317972E3,3.1740022E3,7.405919E2,3.099433E3,1.0167257E4,9.885229E3,2.640912E3,5.2028794E3,4.1150923E3,1.5148965E3,1.6591057E3,6.739698E2,6.662215E1,4.005355E2,2.6988977E3,1.799135E3,8.368122E3,6.967915E3,2.9173135E3,2.5837444E3,5.7167618E1,4.1358965E3,1.0669832E3,2.2775635E3,1.8375288E3],"tree_param":{"num_deleted":"0","num_feature":"59","num_nodes":"31","size_leaf_vector":"1"}},{"base_weights":[3.854725E-3,1.0345611E-1,-2.8542107E-2,1.7488289E-1,6.345225E-2,-6.546421E-2,2.6037017E-2,2.9707965E-1,1.3377585E-1,1.1845344E-1,1.5253567E-2,-3.1594194E-2,-1.4327699E-1,6.437315E-2,-1.8447986E-2,-6.7872106E-4,1.6569123E-2,7.708677E-3,-8.756606E-3,1.7174674E-2,4.81257E-3,-4.101519E-4,1.0276059E-2,2.7308853E-3,-2.58336E-3,-1.0000556E-2,-5.174394E-4,6.8560573E-3,1.5001635E-3,-2.2869704E-3,3.4244775E-3],"categories":[],"categories_nodes":[],"categories_segments":[],"categories_sizes":[],"default_left":[0,0,0,0,0,0,0,0,0,0,0,0,0,0,0,0,0,0,0,0,0,0,0,0,0,0,0,0,0,0,0],"id":20,"left_children":[1,3,5,7,9,11,13,15,17,19,21,23,25,27,29,-1,-1,-1,-1,-1,-1,-1,-1,-1,-1,-1,-1,-1,-1,-1,-1],"loss_changes":[1.26253365E2,2.7150673E1,5.949399E1,1.6631767E1,1.622321E1,4.6209183E1,2.0339108E1,9.44915E0,1.641206E1,1.3748825E1,1.4959027E1,2.1268171E1,3.9973267E1,1.5821445E1,1.3038258E1,0E0,0E0,0E0,0E0,0E0,0E0,0E0,0E0,0E0,0E0,0E0,0E0,0E0,0E0,0E0,0E0],"parents":[2147483647,0,0,1,1,2,2,3,3,4,4,5,5,6,6,7,7,8,8,9,9,10,10,11,11,12,12,13,13,14,14],"right_children":[2,4,6,8,10,12,14,16,18,20,22,24,26,28,30,-1,-1,-1,-1,-1,-1,-1,-1,-1,-1,-1,-1,-1,-1,-1,-1],"split_conditions":[-1.7615069E-3,1.2825333E2,1.03984625E-4,-5.339124E-3,-4.799935E-3,7.396184E-1,7.3544E-1,-3.295213E-2,7.896245E-1,-7.818315E-1,6.1814925E-3,1.271042E-1,1E0,5.9545E1,3.2420615E-3,-6.7872106E-4,1.6569123E-2,7.708677E-3,-8.756606E-3,1.7174674E-2,4.81257E-3,-4.101519E-4,1.0276059E-2,2.7308853E-3,-2.58336E-3,-1.0000556E-2,-5.174394E-4,6.8560573E-3,1.5001635E-3,-2.2869704E-3,3.4244775E-3],"split_indices":[6,25,10,8,9,18,18,5,18,48,39,18,54,24,16,0,0,0,0,0,0,0,0,0,0,0,0,0,0,0,0],"split_type":[0,0,0,0,0,0,0,0,0,0,0,0,0,0,0,0,0,0,0,0,0,0,0,0,0,0,0,0,0,0,0],"sum_hessian":[3.909407E4,9.599893E3,2.9494178E4,3.4313577E3,6.168535E3,1.7603172E4,1.1891005E4,8.497846E2,2.581573E3,2.8678718E3,3.300663E3,1.2278513E4,5.3246587E3,6.3977866E3,5.4932188E3,8.190482E1,7.6787976E2,2.4270525E3,1.5452043E2,2.4698943E2,2.6208823E3,2.93799E3,3.6267313E2,2.3078904E3,9.970622E3,3.7248403E3,1.5998182E3,2.0386648E3,4.3591216E3,4.191344E3,1.3018744E3],"tree_param":{"num_deleted":"0","num_feature":"59","num_nodes":"31","size_leaf_vector":"1"}},{"base_weights":[-1.4883335E-3,7.5531095E-2,-4.242058E-2,4.3427754E-2,1.3610658E-1,-3.5523435E-3,-1.019617E-1,1.4094532E-1,1.7499553E-2,2.1549514E-1,9.914115E-2,-3.429066E-2,5.7660956E-2,-1.9531956E-1,-6.748465E-2,1.0011409E-2,-5.62041E-4,3.6337465E-4,1.3671681E-2,-1.1590504E-3,1.2620501E-2,9.311612E-3,9.0282736E-4,4.266027E-4,-5.483776E-3,3.3510525E-3,-8.274365E-3,-1.4159255E-2,-7.0047574E-3,-1.3884279E-3,-6.9559193E-3],"categories":[],"categories_nodes":[],"categories_segments":[],"categories_sizes":[],"default_left":[0,0,0,0,0,0,0,0,0,0,0,0,0,0,0,0,0,0,0,0,0,0,0,0,0,0,0,0,0,0,0],"id":21,"left_children":[1,3,5,7,9,11,13,15,17,19,21,23,25,27,29,-1,-1,-1,-1,-1,-1,-1,-1,-1,-1,-1,-1,-1,-1,-1,-1],"loss_changes":[1.23135574E2,2.6140427E1,5.8951496E1,2.2267279E1,1.3313652E1,2.906761E1,3.208036E1,1.6937069E1,1.8103636E1,1.3246178E1,2.2456032E1,3.3365692E1,1.0729601E1,1.250457E1,2.077824E1,0E0,0E0,0E0,0E0,0E0,0E0,0E0,0E0,0E0,0E0,0E0,0E0,0E0,0E0,0E0,0E0],"parents":[2147483647,0,0,1,1,2,2,3,3,4,4,5,5,6,6,7,7,8,8,9,9,10,10,11,11,12,12,13,13,14,14],"right_children":[2,4,6,8,10,12,14,16,18,20,22,24,26,28,30,-1,-1,-1,-1,-1,-1,-1,-1,-1,-1,-1,-1,-1,-1,-1,-1],"split_conditions":[-1.072903E-3,7.5665995E-2,5.5849472E1,1.9629E4,-3.1399033E-3,1.2575862E-1,-4.3388373E-1,1E0,1.1786773E-2,6.903727E-4,1.3941786E2,1.2090511E-3,1.311761E-3,-4.033448E-2,5E-1,1.0011409E-2,-5.62041E-4,3.6337465E-4,1.3671681E-2,-1.1590504E-3,1.2620501E-2,9.311612E-3,9.0282736E-4,4.266027E-4,-5.483776E-3,3.3510525E-3,-8.274365E-3,-1.4159255E-2,-7.0047574E-3,-1.3884279E-3,-6.9559193E-3],"split_indices":[1,19,34,42,6,19,48,17,40,16,24,6,39,19,47,0,0,0,0,0,0,0,0,0,0,0,0,0,0,0,0],"split_type":[0,0,0,0,0,0,0,0,0,0,0,0,0,0,0,0,0,0,0,0,0,0,0,0,0,0,0,0,0,0,0],"sum_hessian":[3.905911E4,1.3544565E4,2.5514545E4,8.869218E3,4.6753477E3,1.5450563E4,1.0063981E4,1.8501063E3,7.019112E3,1.4690825E3,3.2062651E3,1.0297965E4,5.1525977E3,2.7001401E3,7.3638413E3,1.3350435E3,5.1506287E2,6.7579814E3,2.6113004E2,1.9340134E2,1.2756813E3,1.5368037E3,1.6694615E3,6.561719E3,3.7362458E3,4.952828E3,1.997698E2,1.0271431E3,1.6729972E3,4.750761E3,2.6130796E3],"tree_param":{"num_deleted":"0","num_feature":"59","num_nodes":"31","size_leaf_vector":"1"}},{"base_weights":[-3.8771331E-3,6.874329E-2,-4.8081275E-2,1.4272037E-1,4.031422E-2,-2.465467E-2,-1.0989214E-1,2.4843776E-1,1.0754893E-1,1.2035352E-1,1.6169082E-2,-1.4244251E-2,-1.4538017E-1,-1.3714363E-1,2.4539502E-2,1.836664E-3,1.6082793E-2,6.206576E-3,-5.074691E-3,1.1489172E-2,3.306238E-3,3.604062E-4,8.969305E-3,-2.4743928E-3,1.1368165E-3,5.802564E-3,-8.307169E-3,-9.1913855E-3,-3.3157112E-3,-4.933868E-3,6.2138564E-3],"categories":[],"categories_nodes":[],"categories_segments":[],"categories_sizes":[],"default_left":[0,0,0,0,0,0,0,0,0,0,0,0,0,0,0,0,0,0,0,0,0,0,0,0,0,0,0,0,0,0,0],"id":22,"left_children":[1,3,5,7,9,11,13,15,17,19,21,23,25,27,29,-1,-1,-1,-1,-1,-1,-1,-1,-1,-1,-1,-1,-1,-1,-1,-1],"loss_changes":[1.25253525E2,3.0825218E1,3.4990726E1,1.4700058E1,2.0488785E1,2.1969276E1,2.4514542E1,1.5221218E1,1.0766762E1,1.4251251E1,1.1826978E1,2.1185753E1,7.693079E0,1.8011902E1,1.3850591E1,0E0,0E0,0E0,0E0,0E0,0E0,0E0,0E0,0E0,0E0,0E0,0E0,0E0,0E0,0E0,0E0],"parents":[2147483647,0,0,1,1,2,2,3,3,4,4,5,5,6,6,7,7,8,8,9,9,10,10,11,11,12,12,13,13,14,14],"right_children":[2,4,6,8,10,12,14,16,18,20,22,24,26,28,30,-1,-1,-1,-1,-1,-1,-1,-1,-1,-1,-1,-1,-1,-1,-1,-1],"split_conditions":[-7.07946E-4,1.2657426E-1,6.570298E1,3.0235294E1,3.1441178E-3,4.753685E-3,1E0,-1.1937118E-2,9.76E4,2.6555E4,1.5568154E-2,8.043758E-5,-1.1648148E3,9.667647E-2,1.6179979E-2,1.836664E-3,1.6082793E-2,6.206576E-3,-5.074691E-3,1.1489172E-2,3.306238E-3,3.604062E-4,8.969305E-3,-2.4743928E-3,1.1368165E-3,5.802564E-3,-8.307169E-3,-9.1913855E-3,-3.3157112E-3,-4.933868E-3,6.2138564E-3],"split_indices":[6,15,35,35,45,6,32,8,43,43,3,19,56,19,45,0,0,0,0,0,0,0,0,0,0,0,0,0,0,0,0],"split_type":[0,0,0,0,0,0,0,0,0,0,0,0,0,0,0,0,0,0,0,0,0,0,0,0,0,0,0,0,0,0,0],"sum_hessian":[3.9014574E4,1.4752746E4,2.426183E4,4.0801787E3,1.0672567E4,1.7610531E4,6.6513E3,1.00390826E3,3.0762705E3,2.4591921E3,8.213375E3,1.6225265E4,1.3852661E3,5.5363325E3,1.114967E3,2.6341898E2,7.4048926E2,2.8564902E3,2.1978009E2,8.0338654E2,1.6558055E3,7.7966694E3,4.1670596E2,8.320719E3,7.904545E3,9.669258E1,1.2885736E3,3.3236199E3,2.2127126E3,4.9431375E2,6.206533E2],"tree_param":{"num_deleted":"0","num_feature":"59","num_nodes":"31","size_leaf_vector":"1"}},{"base_weights":[9.199682E-4,7.977752E-2,-2.8045299E-2,1.2161014E-1,1.1351503E-2,1.5562285E-2,-6.0271524E-2,1.8469907E-1,8.299941E-2,1.6885407E-1,-2.4547322E-2,2.0495075E-1,5.08168E-3,-2.6339116E-2,-1.5299971E-1,-6.4343237E-3,1.0265107E-2,-6.6394144E-4,6.9113425E-3,2.5313875E-2,5.8438103E-3,-1.6158259E-4,-1.3714068E-2,1.5007745E-2,-3.3716077E-4,6.317551E-3,-2.0709766E-4,-3.395556E-4,-5.0497367E-3,-9.700672E-3,-2.393407E-3],"categories":[],"categories_nodes":[],"categories_segments":[],"categories_sizes":[],"default_left":[0,0,0,0,0,0,0,0,0,0,0,0,0,0,0,0,0,0,0,0,0,0,0,0,0,0,0,0,0,0,0],"id":23,"left_children":[1,3,5,7,9,11,13,15,17,19,21,23,25,27,29,-1,-1,-1,-1,-1,-1,-1,-1,-1,-1,-1,-1,-1,-1,-1,-1],"loss_changes":[8.925018E1,2.991555E1,4.0173122E1,1.5505211E1,2.277208E1,2.3849787E1,5.1505363E1,1.6068672E1,2.1696812E1,1.2199188E1,1.7047049E1,1.3013153E1,1.2986284E1,1.7465698E1,1.8655075E1,0E0,0E0,0E0,0E0,0E0,0E0,0E0,0E0,0E0,0E0,0E0,0E0,0E0,0E0,0E0,0E0],"parents":[2147483647,0,0,1,1,2,2,3,3,4,4,5,5,6,6,7,7,8,8,9,9,10,10,11,11,12,12,13,13,14,14],"right_children":[2,4,6,8,10,12,14,16,18,20,22,24,26,28,30,-1,-1,-1,-1,-1,-1,-1,-1,-1,-1,-1,-1,-1,-1,-1,-1],"split_conditions":[4.033337E1,1.1514362E0,1E0,2.895287E4,1.5941911E-3,-4.8769666E-3,7.7436584E-1,-2.5523655E-2,1.1497315E-1,1.72526E4,1E0,-9.470761E2,9.261E3,8.660254E-1,3.724768E-5,-6.4343237E-3,1.0265107E-2,-6.6394144E-4,6.9113425E-3,2.5313875E-2,5.8438103E-3,-1.6158259E-4,-1.3714068E-2,1.5007745E-2,-3.3716077E-4,6.317551E-3,-2.0709766E-4,-3.395556E-4,-5.0497367E-3,-9.700672E-3,-2.393407E-3],"split_indices":[35,31,52,42,45,1,18,4,14,42,21,56,43,47,10,0,0,0,0,0,0,0,0,0,0,0,0,0,0,0,0],"split_type":[0,0,0,0,0,0,0,0,0,0,0,0,0,0,0,0,0,0,0,0,0,0,0,0,0,0,0,0,0,0,0],"sum_hessian":[3.904149E4,1.0494932E4,2.8546557E4,6.501626E3,3.9933057E3,1.2119016E4,1.6427543E4,2.451356E3,4.05027E3,7.429637E2,3.250342E3,6.2562085E2,1.1493395E4,1.2039195E4,4.388347E3,1.4660698E2,2.304749E3,1.4712042E3,2.579066E3,9.077056E1,6.521931E2,3.0030872E3,2.4725499E2,4.333616E2,1.9225923E2,8.15563E2,1.0677831E4,9.555904E3,2.483291E3,3.146933E3,1.2414141E3],"tree_param":{"num_deleted":"0","num_feature":"59","num_nodes":"31","size_leaf_vector":"1"}},{"base_weights":[3.4041584E-3,3.7537295E-2,-5.9510678E-2,8.8930584E-2,1.1755428E-2,-2.6573205E-2,-1.1467297E-1,2.1600913E-1,6.947856E-2,4.4725586E-2,-2.4134925E-2,-2.5420702E-1,-1.2904454E-2,-1.2805761E-1,6.2274974E-2,1.8339003E-2,5.0317734E-3,3.1628076E-3,2.6222384E-2,3.2953264E-3,-1.1349496E-3,6.169755E-5,-3.8623621E-3,1.054167E-2,-1.4949813E-2,-4.5228973E-3,7.2027923E-4,-7.4165585E-3,3.428475E-4,2.0769097E-2,-3.1179443E-3],"categories":[],"categories_nodes":[],"categories_segments":[],"categories_sizes":[],"default_left":[0,0,0,0,0,0,0,0,0,0,0,0,0,0,0,0,0,0,0,0,0,0,0,0,0,0,0,0,0,0,0],"id":24,"left_children":[1,3,5,7,9,11,13,15,17,19,21,23,25,27,29,-1,-1,-1,-1,-1,-1,-1,-1,-1,-1,-1,-1,-1,-1,-1,-1],"loss_changes":[8.3901375E1,3.347653E1,2.4798279E1,2.0535362E1,2.0020025E1,2.6530077E1,1.2236755E1,1.870831E1,2.0040928E1,1.26508045E1,1.0961864E1,1.0479111E1,1.7320707E1,1.3190117E1,1.6251354E1,0E0,0E0,0E0,0E0,0E0,0E0,0E0,0E0,0E0,0E0,0E0,0E0,0E0,0E0,0E0,0E0],"parents":[2147483647,0,0,1,1,2,2,3,3,4,4,5,5,6,6,7,7,8,8,9,9,10,10,11,11,12,12,13,13,14,14],"right_children":[2,4,6,8,10,12,14,16,18,20,22,24,26,28,30,-1,-1,-1,-1,-1,-1,-1,-1,-1,-1,-1,-1,-1,-1,-1,-1],"split_conditions":[5.717983E1,-4.2729896E-1,7.8229445E-1,1.3177122E-3,2.65625E-1,2.3353333E1,1.00428E5,3.571666E4,6.7766057E-3,2.2608067E1,5.9866183E-2,-4.377887E-4,-4.3388373E-1,1.7327416E0,1.1035261E-3,1.8339003E-2,5.0317734E-3,3.1628076E-3,2.6222384E-2,3.2953264E-3,-1.1349496E-3,6.169755E-5,-3.8623621E-3,1.054167E-2,-1.4949813E-2,-4.5228973E-3,7.2027923E-4,-7.4165585E-3,3.428475E-4,2.0769097E-2,-3.1179443E-3],"split_indices":[35,58,18,45,15,25,42,43,39,36,33,6,48,30,1,0,0,0,0,0,0,0,0,0,0,0,0,0,0,0,0],"split_type":[0,0,0,0,0,0,0,0,0,0,0,0,0,0,0,0,0,0,0,0,0,0,0,0,0,0,0,0,0,0,0],"sum_hessian":[3.9069707E4,2.5339951E4,1.3729753E4,8.448257E3,1.6891695E4,8.61266E3,5.1170933E3,1.10798E3,7.340277E3,8.817895E3,8.0738003E3,4.787418E2,8.1339185E3,4.763785E3,3.5330823E2,4.7182874E2,6.361512E2,7.2490283E3,9.124858E1,6.721369E3,2.0965254E3,5.4545254E3,2.6192751E3,3.8468243E1,4.4027356E2,2.1248748E3,6.0090435E3,4.147463E3,6.163224E2,9.12219E1,2.620863E2],"tree_param":{"num_deleted":"0","num_feature":"59","num_nodes":"31","size_leaf_vector":"1"}},{"base_weights":[-3.183723E-4,7.4094154E-2,-2.9909309E-2,1.8422595E-1,5.733934E-2,-5.1338326E-2,2.3009602E-2,2.8861943E-1,1.0279333E-1,8.851756E-2,-1.4442906E-2,1.4158048E-2,-8.075574E-2,1.753598E-2,3.7617064E-1,1.655732E-2,-7.4081607E-3,3.3508395E-3,2.2910833E-2,2.526838E-3,7.7756154E-3,1.9875488E-3,-4.6023293E-3,1.7666934E-3,-4.83019E-3,-5.1674624E-3,-1.2553203E-3,8.431613E-3,3.7527914E-4,3.0912567E-2,7.598196E-3],"categories":[],"categories_nodes":[],"categories_segments":[],"categories_sizes":[],"default_left":[0,0,0,0,0,0,0,0,0,0,0,0,0,0,0,0,0,0,0,0,0,0,0,0,0,0,0,0,0,0,0],"id":25,"left_children":[1,3,5,7,9,11,13,15,17,19,21,23,25,27,29,-1,-1,-1,-1,-1,-1,-1,-1,-1,-1,-1,-1,-1,-1,-1,-1],"loss_changes":[8.601737E1,2.0207417E1,3.1756535E1,1.1846024E1,2.1697023E1,3.846443E1,1.5139898E1,1.2136635E1,9.896287E0,1.6915577E1,1.2348568E1,1.4426315E1,1.7161049E1,1.184788E1,5.2662067E0,0E0,0E0,0E0,0E0,0E0,0E0,0E0,0E0,0E0,0E0,0E0,0E0,0E0,0E0,0E0,0E0],"parents":[2147483647,0,0,1,1,2,2,3,3,4,4,5,5,6,6,7,7,8,8,9,9,10,10,11,11,12,12,13,13,14,14],"right_children":[2,4,6,8,10,12,14,16,18,20,22,24,26,28,30,-1,-1,-1,-1,-1,-1,-1,-1,-1,-1,-1,-1,-1,-1,-1,-1],"split_conditions":[4.113096E1,-7.818315E-1,6.303616E-4,3.2446453E1,1.3005381E0,3.2258064E-1,7.314569E1,2.4022013E-1,5.649581E1,2.857143E-1,-5.6236866E-3,5.6154037E-1,1E0,-2.8955236E-3,7.66724E1,1.655732E-2,-7.4081607E-3,3.3508395E-3,2.2910833E-2,2.526838E-3,7.7756154E-3,1.9875488E-3,-4.6023293E-3,1.7666934E-3,-4.83019E-3,-5.1674624E-3,-1.2553203E-3,8.431613E-3,3.7527914E-4,3.0912567E-2,7.598196E-3],"split_indices":[35,48,10,35,31,18,34,33,36,14,8,19,54,12,35,0,0,0,0,0,0,0,0,0,0,0,0,0,0,0,0],"split_type":[0,0,0,0,0,0,0,0,0,0,0,0,0,0,0,0,0,0,0,0,0,0,0,0,0,0,0,0,0,0,0],"sum_hessian":[3.9074457E4,1.1105661E4,2.7968795E4,1.451973E3,9.653688E3,1.9921012E4,8.0477817E3,6.2532666E2,8.266463E2,6.7392837E3,2.9144048E3,6.164552E3,1.3756461E4,7.93291E3,1.1487184E2,5.730326E2,5.2294064E1,7.5900226E2,6.764404E1,4.3160933E3,2.4231902E3,1.7098783E3,1.2045264E3,5.1855874E3,9.7896466E2,9.768298E3,3.9881626E3,4.827086E2,7.4502017E3,4.8864315E1,6.600752E1],"tree_param":{"num_deleted":"0","num_feature":"59","num_nodes":"31","size_leaf_vector":"1"}},{"base_weights":[-1.1373307E-3,6.263785E-2,-3.1227568E-2,7.755254E-2,-8.713027E-2,8.14334E-3,-5.888526E-2,1.3444498E-1,4.2632684E-2,-1.4537923E-1,4.0043052E-2,8.5243575E-2,-1.0929166E-2,-3.269587E-2,-1.281523E-1,1.5733996E-2,5.492079E-3,2.003766E-4,5.4370817E-3,-2.1793956E-3,-1.6450694E-2,1.1677391E-2,-8.688963E-3,1.1286141E-2,2.0216263E-3,-6.422469E-3,1.9446352E-4,-2.8859703E-3,1.242767E-3,-8.443422E-3,-4.2815824E-4],"categories":[],"categories_nodes":[],"categories_segments":[],"categories_sizes":[],"default_left":[0,0,0,0,0,0,0,0,0,0,0,0,0,0,0,0,0,0,0,0,0,0,0,0,0,0,0,0,0,0,0],"id":26,"left_children":[1,3,5,7,9,11,13,15,17,19,21,23,25,27,29,-1,-1,-1,-1,-1,-1,-1,-1,-1,-1,-1,-1,-1,-1,-1,-1],"loss_changes":[7.4869644E1,2.7949348E1,2.894134E1,2.2398643E1,8.494007E0,1.616062E1,2.8114452E1,1.8533897E1,1.7934784E1,1.41443615E1,1.4869736E1,1.3409994E1,1.5384794E1,1.6365309E1,2.0593964E1,0E0,0E0,0E0,0E0,0E0,0E0,0E0,0E0,0E0,0E0,0E0,0E0,0E0,0E0,0E0,0E0],"parents":[2147483647,0,0,1,1,2,2,3,3,4,4,5,5,6,6,7,7,8,8,9,9,10,10,11,11,12,12,13,13,14,14],"right_children":[2,4,6,8,10,12,14,16,18,20,22,24,26,28,30,-1,-1,-1,-1,-1,-1,-1,-1,-1,-1,-1,-1,-1,-1,-1,-1],"split_conditions":[4.282054E1,8.3732104E-1,1E0,2.884039E4,7.5250133E-3,-5.62169E-4,7.7436584E-1,1.1695575E-3,7.5665995E-2,3E0,2.2064302E-4,-1.1648148E3,-1.0384977E2,3E0,1.2674488E-4,1.5733996E-2,5.492079E-3,2.003766E-4,5.4370817E-3,-2.1793956E-3,-1.6450694E-2,1.1677391E-2,-8.688963E-3,1.1286141E-2,2.0216263E-3,-6.422469E-3,1.9446352E-4,-2.8859703E-3,1.242767E-3,-8.443422E-3,-4.2815824E-4],"split_indices":[35,18,52,43,45,0,18,45,19,53,6,56,55,51,10,0,0,0,0,0,0,0,0,0,0,0,0,0,0,0,0],"split_type":[0,0,0,0,0,0,0,0,0,0,0,0,0,0,0,0,0,0,0,0,0,0,0,0,0,0,0,0,0,0,0],"sum_hessian":[3.902099E4,1.2496488E4,2.65245E4,1.1372994E4,1.1234943E3,1.0931215E4,1.5593285E4,4.309289E3,7.0637046E3,7.754594E2,3.480348E2,2.1747827E3,8.756432E3,1.1330934E4,4.262352E3,5.0563168E2,3.8036575E3,4.4715586E3,2.592146E3,5.0639166E2,2.6906778E2,1.849103E2,1.631245E2,5.156759E2,1.6591068E3,9.837525E2,7.7726797E3,7.9092954E3,3.4216377E3,3.1719766E3,1.0903752E3],"tree_param":{"num_deleted":"0","num_feature":"59","num_nodes":"31","size_leaf_vector":"1"}},{"base_weights":[2.0703832E-3,-3.8906828E-2,4.346291E-2,-1.2609842E-2,-1.2508747E-1,1.1900294E-1,9.1038495E-3,3.5605133E-2,-4.0282045E-2,-3.3230084E-1,-1.0835752E-1,1.9793187E-1,7.804853E-2,-1.6930392E-2,6.94528E-2,-6.3835033E-3,2.8125641E-3,-2.500208E-3,4.483665E-3,-1.3869816E-2,-3.8773574E-2,-7.158371E-3,-2.0393893E-5,1.3044478E-2,4.439729E-3,7.3734494E-3,1.0765432E-3,2.1756338E-3,-1.9310331E-3,7.3112673E-3,7.924211E-4],"categories":[],"categories_nodes":[],"categories_segments":[],"categories_sizes":[],"default_left":[0,0,0,0,0,0,0,0,0,0,0,0,0,0,0,0,0,0,0,0,0,0,0,0,0,0,0,0,0,0,0],"id":27,"left_children":[1,3,5,7,9,11,13,15,17,19,21,23,25,27,29,-1,-1,-1,-1,-1,-1,-1,-1,-1,-1,-1,-1,-1,-1,-1,-1],"loss_changes":[6.620572E1,4.4277153E1,5.0293484E1,2.0069336E1,1.5233543E1,1.9250938E1,2.1062992E1,1.8408312E1,1.2069923E1,6.017254E0,1.5802231E1,1.3690384E1,1.554632E1,1.2238399E1,1.6459423E1,0E0,0E0,0E0,0E0,0E0,0E0,0E0,0E0,0E0,0E0,0E0,0E0,0E0,0E0,0E0,0E0],"parents":[2147483647,0,0,1,1,2,2,3,3,4,4,5,5,6,6,7,7,8,8,9,9,10,10,11,11,12,12,13,13,14,14],"right_children":[2,4,6,8,10,12,14,16,18,20,22,24,26,28,30,-1,-1,-1,-1,-1,-1,-1,-1,-1,-1,-1,-1,-1,-1,-1,-1],"split_conditions":[1E0,7.7436584E-1,3.391747E-1,6.4865467E-3,-5.0455956E-3,2.751171E4,1.1951935E-2,1.9479424E-3,2.0943744E0,7.6351142E-3,2.3823E2,-1.3529686E-3,-2.9589033E-3,-2.5309262E-1,1.8171643E2,-6.3835033E-3,2.8125641E-3,-2.500208E-3,4.483665E-3,-1.3869816E-2,-3.8773574E-2,-7.158371E-3,-2.0393893E-5,1.3044478E-2,4.439729E-3,7.3734494E-3,1.0765432E-3,2.1756338E-3,-1.9310331E-3,7.3112673E-3,7.924211E-4],"split_indices":[53,18,18,45,9,43,44,44,30,7,25,1,2,33,24,0,0,0,0,0,0,0,0,0,0,0,0,0,0,0,0],"split_type":[0,0,0,0,0,0,0,0,0,0,0,0,0,0,0,0,0,0,0,0,0,0,0,0,0,0,0,0,0,0,0],"sum_hessian":[3.9020258E4,1.9596512E4,1.9423746E4,1.502818E4,4.5683325E3,6.059727E3,1.336402E4,5.4663145E3,9.561865E3,3.2977167E2,4.2385605E3,2.0552283E3,4.0044988E3,9.327297E3,4.036723E3,6.0527625E2,4.8610386E3,8.906342E3,6.555232E2,3.0266104E2,2.7110613E1,3.196809E3,1.0417516E3,1.2931422E3,7.62086E2,1.7855608E3,2.218938E3,2.4497053E3,6.8775913E3,1.6484738E3,2.3882493E3],"tree_param":{"num_deleted":"0","num_feature":"59","num_nodes":"31","size_leaf_vector":"1"}},{"base_weights":[3.8373147E-4,7.2986625E-2,-2.3623865E-2,1.4778742E-1,4.4819336E-2,-1.0475502E-3,-7.463465E-2,1.0350118E-1,2.4554501E-1,2.3571786E-3,1.0427073E-1,-5.937909E-3,1.4295734E-1,-1.0307854E-1,3.5088245E-2,8.263662E-4,8.486523E-3,1.0072426E-2,2.4196737E-2,1.6974347E-3,-6.1995424E-3,9.426361E-3,2.8095625E-3,-1.4154068E-3,1.3882831E-3,2.7414054E-2,4.3264804E-3,7.591463E-4,-6.0797795E-3,1.2620595E-2,-2.6741644E-4],"categories":[],"categories_nodes":[],"categories_segments":[],"categories_sizes":[],"default_left":[0,0,0,0,0,0,0,0,0,0,0,0,0,0,0,0,0,0,0,0,0,0,0,0,0,0,0,0,0,0,0],"id":28,"left_children":[1,3,5,7,9,11,13,15,17,19,21,23,25,27,29,-1,-1,-1,-1,-1,-1,-1,-1,-1,-1,-1,-1,-1,-1,-1,-1],"loss_changes":[6.801209E1,2.02108E1,3.3657337E1,1.0959705E1,1.7722633E1,1.4179955E1,2.8090214E1,1.0361706E1,7.3722496E0,1.6436892E1,1.1583641E1,1.4833121E1,1.4246118E1,1.5738586E1,1.6456137E1,0E0,0E0,0E0,0E0,0E0,0E0,0E0,0E0,0E0,0E0,0E0,0E0,0E0,0E0,0E0,0E0],"parents":[2147483647,0,0,1,1,2,2,3,3,4,4,5,5,6,6,7,7,8,8,9,9,10,10,11,11,12,12,13,13,14,14],"right_children":[2,4,6,8,10,12,14,16,18,20,22,24,26,28,30,-1,-1,-1,-1,-1,-1,-1,-1,-1,-1,-1,-1,-1,-1,-1,-1],"split_conditions":[3.9274384E1,-4.3388373E-1,6.300635E1,6.3838404E-1,8.043758E-5,1.1786773E-2,1.5147293E0,-8.529055E-4,1.4736224E0,1.3233776E0,8.227646E-1,6.912917E-2,-5.769538E-1,1.2602971E-3,2.3537222E-1,8.263662E-4,8.486523E-3,1.0072426E-2,2.4196737E-2,1.6974347E-3,-6.1995424E-3,9.426361E-3,2.8095625E-3,-1.4154068E-3,1.3882831E-3,2.7414054E-2,4.3264804E-3,7.591463E-4,-6.0797795E-3,1.2620595E-2,-2.6741644E-4],"split_indices":[35,48,35,13,19,40,31,40,31,29,29,19,58,8,18,0,0,0,0,0,0,0,0,0,0,0,0,0,0,0,0],"split_type":[0,0,0,0,0,0,0,0,0,0,0,0,0,0,0,0,0,0,0,0,0,0,0,0,0,0,0,0,0,0,0],"sum_hessian":[3.898139E4,9.694647E3,2.9286744E4,2.6364854E3,7.0581626E3,2.031878E4,8.967965E3,1.8286099E3,8.078754E2,4.1302324E3,2.9279302E3,1.9662777E4,6.5600336E2,7.1292407E3,1.838724E3,7.99731E2,1.0288789E3,6.9309E2,1.1478537E2,3.3133481E3,8.168841E2,1.0508944E3,1.8770358E3,1.1836771E4,7.826005E3,7.267442E1,5.833289E2,9.579661E2,6.1712744E3,2.8822064E2,1.5505034E3],"tree_param":{"num_deleted":"0","num_feature":"59","num_nodes":"31","size_leaf_vector":"1"}},{"base_weights":[2.4666585E-4,7.7472575E-2,-2.4792537E-2,1.07236095E-1,-2.8694551E-3,2.2955472E-3,-7.2631836E-2,2.0871662E-1,8.027479E-2,7.410169E-2,-5.375898E-2,-2.0618634E-2,4.70673E-2,-1.6560222E-1,-3.776738E-2,9.575109E-3,3.1938013E-2,1.7021988E-3,6.6857794E-3,-5.618158E-4,1.1242452E-2,-4.309136E-3,5.181348E-3,-4.1624633E-4,-7.2441804E-3,2.8198266E-3,-6.5922006E-3,1.7760806E-2,-8.714521E-3,-7.534306E-5,-5.1393113E-3],"categories":[],"categories_nodes":[],"categories_segments":[],"categories_sizes":[],"default_left":[0,0,0,0,0,0,0,0,0,0,0,0,0,0,0,0,0,0,0,0,0,0,0,0,0,0,0,0,0,0,0],"id":29,"left_children":[1,3,5,7,9,11,13,15,17,19,21,23,25,27,29,-1,-1,-1,-1,-1,-1,-1,-1,-1,-1,-1,-1,-1,-1,-1,-1],"loss_changes":[7.5483116E1,2.2968605E1,3.823202E1,1.8740318E1,1.0106601E1,1.9311493E1,3.431715E1,9.332783E0,1.348481E1,1.3364126E1,8.008511E0,1.8814167E1,1.0608147E1,1.32416E1,1.8205936E1,0E0,0E0,0E0,0E0,0E0,0E0,0E0,0E0,0E0,0E0,0E0,0E0,0E0,0E0,0E0,0E0],"parents":[2147483647,0,0,1,1,2,2,3,3,4,4,5,5,6,6,7,7,8,8,9,9,10,10,11,11,12,12,13,13,14,14],"right_children":[2,4,6,8,10,12,14,16,18,20,22,24,26,28,30,-1,-1,-1,-1,-1,-1,-1,-1,-1,-1,-1,-1,-1,-1,-1,-1],"split_conditions":[-1.7615069E-3,4.7107646E-1,5.563363E1,2.038586E4,-5.2925046E-3,1.218638E-1,-4.3388373E-1,4.6443595E-3,1.2246469E-16,-1.6232131E-3,9.192001E-3,7.493498E-1,6.6375504E-3,-5.9509206E-1,5E-1,9.575109E-3,3.1938013E-2,1.7021988E-3,6.6857794E-3,-5.618158E-4,1.1242452E-2,-4.309136E-3,5.181348E-3,-4.1624633E-4,-7.2441804E-3,2.8198266E-3,-6.5922006E-3,1.7760806E-2,-8.714521E-3,-7.534306E-5,-5.1393113E-3],"split_indices":[6,18,34,42,9,19,48,7,46,12,3,58,2,33,47,0,0,0,0,0,0,0,0,0,0,0,0,0,0,0,0],"split_type":[0,0,0,0,0,0,0,0,0,0,0,0,0,0,0,0,0,0,0,0,0,0,0,0,0,0,0,0,0,0,0],"sum_hessian":[3.8998883E4,9.555935E3,2.9442947E4,6.980654E3,2.575281E3,1.8788293E4,1.0654654E4,1.4504525E3,5.530201E3,1.0162528E3,1.5590282E3,1.2414773E4,6.373519E3,2.892912E3,7.7617417E3,1.4038104E3,4.664202E1,2.9795427E3,2.5506587E3,6.476258E2,3.68627E2,1.2998553E3,2.5917282E2,1.130931E4,1.1054636E3,6.0662134E3,3.0730606E2,4.2306473E1,2.8506055E3,4.996004E3,2.765738E3],"tree_param":{"num_deleted":"0","num_feature":"59","num_nodes":"31","size_leaf_vector":"1"}},{"base_weights":[-1.5348891E-3,6.3422665E-2,-2.7374407E-2,8.140482E-2,-2.5246263E-2,-4.70198E-2,2.1659732E-2,2.1088894E-1,6.379979E-2,-4.4985753E-2,2.5315976E-1,1.1236558E-2,-7.2898455E-2,7.615856E-3,1.8265373E-1,1.2190077E-2,-2.3014955E-3,2.7630024E-3,1.2919875E-2,-6.087384E-4,-9.748621E-3,8.604356E-4,2.5096504E-2,-7.950868E-4,4.857236E-3,-4.7799163E-3,-8.7503804E-4,7.7096145E-3,-2.2248084E-4,1.7042346E-2,1.9286929E-3],"categories":[],"categories_nodes":[],"categories_segments":[],"categories_sizes":[],"default_left":[0,0,0,0,0,0,0,0,0,0,0,0,0,0,0,0,0,0,0,0,0,0,0,0,0,0,0,0,0,0,0],"id":30,"left_children":[1,3,5,7,9,11,13,15,17,19,21,23,25,27,29,-1,-1,-1,-1,-1,-1,-1,-1,-1,-1,-1,-1,-1,-1,-1,-1],"loss_changes":[6.541015E1,1.7741707E1,2.691208E1,2.0691463E1,1.0089954E1,3.0126823E1,1.7825481E1,9.516418E0,1.3136333E1,8.382015E0,6.5271683E0,1.437021E1,1.7256363E1,1.3138607E1,1.3996712E1,0E0,0E0,0E0,0E0,0E0,0E0,0E0,0E0,0E0,0E0,0E0,0E0,0E0,0E0,0E0,0E0],"parents":[2147483647,0,0,1,1,2,2,3,3,4,4,5,5,6,6,7,7,8,8,9,9,10,10,11,11,12,12,13,13,14,14],"right_children":[2,4,6,8,10,12,14,16,18,20,22,24,26,28,30,-1,-1,-1,-1,-1,-1,-1,-1,-1,-1,-1,-1,-1,-1,-1,-1],"split_conditions":[4.113096E1,6.856666E4,6.583429E-4,5.0200805E-2,5E0,3.2258064E-1,1.6859733E0,5.233892E-1,4.654183E-1,4.503355E-1,-5.0308704E-3,2.1965639E-3,1E0,9.41961E3,1.1698735E-3,1.2190077E-2,-2.3014955E-3,2.7630024E-3,1.2919875E-2,-6.087384E-4,-9.748621E-3,8.604356E-4,2.5096504E-2,-7.950868E-4,4.857236E-3,-4.7799163E-3,-8.7503804E-4,7.7096145E-3,-2.2248084E-4,1.7042346E-2,1.9286929E-3],"split_indices":[35,42,10,15,53,18,31,18,19,14,4,1,54,42,0,0,0,0,0,0,0,0,0,0,0,0,0,0,0,0,0],"split_type":[0,0,0,0,0,0,0,0,0,0,0,0,0,0,0,0,0,0,0,0,0,0,0,0,0,0,0,0,0,0,0],"sum_hessian":[3.8981363E4,1.1080442E4,2.7900922E4,9.221916E3,1.8585267E3,1.9934729E4,7.9661934E3,1.0903977E3,8.131518E3,1.7427468E3,1.15779945E2,6.120606E3,1.3814123E4,7.3375684E3,6.28625E2,9.702512E2,1.2014652E2,7.800748E3,3.3077008E2,1.4398412E3,3.029056E2,6.422764E1,5.1552307E1,4.645524E3,1.4750817E3,9.783525E3,4.0305974E3,5.5988104E2,6.777687E3,2.9307397E2,3.35551E2],"tree_param":{"num_deleted":"0","num_feature":"59","num_nodes":"31","size_leaf_vector":"1"}},{"base_weights":[-3.4811234E-4,-5.0302044E-2,2.4992997E-2,4.1425303E-2,-6.276172E-2,4.602557E-2,-3.1006876E-2,4.8105004E-3,2.4028541E-1,-6.977226E-2,1.3911676E-1,1.1196913E-1,2.9495E-2,2.0054305E-2,-1.1070466E-1,3.9324374E-3,-5.207117E-3,5.992729E-4,1.7475333E-2,-3.615298E-3,2.1968376E-2,9.563604E-3,-2.302792E-2,1.1813804E-2,3.5455674E-3,-1.4449748E-3,2.5506166E-3,2.4055906E-4,1.4502875E-2,-4.121076E-3,-1.540726E-2],"categories":[],"categories_nodes":[],"categories_segments":[],"categories_sizes":[],"default_left":[0,0,0,0,0,0,0,0,0,0,0,0,0,0,0,0,0,0,0,0,0,0,0,0,0,0,0,0,0,0,0],"id":31,"left_children":[1,3,5,7,9,11,13,15,17,19,21,23,25,27,29,-1,-1,-1,-1,-1,-1,-1,-1,-1,-1,-1,-1,-1,-1,-1,-1],"loss_changes":[4.9363216E1,1.504118E1,3.0462238E1,1.1134725E1,1.635661E1,2.033884E1,2.8776968E1,1.071434E1,5.57197E0,1.4229088E1,1.2220278E1,1.8772804E1,1.894365E1,1.736023E1,1.4895153E1,0E0,0E0,0E0,0E0,0E0,0E0,0E0,0E0,0E0,0E0,0E0,0E0,0E0,0E0,0E0,0E0],"parents":[2147483647,0,0,1,1,2,2,3,3,4,4,5,5,6,6,7,7,8,8,9,9,10,10,11,11,12,12,13,13,14,14],"right_children":[2,4,6,8,10,12,14,16,18,20,22,24,26,28,30,-1,-1,-1,-1,-1,-1,-1,-1,-1,-1,-1,-1,-1,-1,-1,-1],"split_conditions":[4.6256385E-3,1.4271636E-1,1.2090511E-3,7.8700867E-4,6.7748586E-3,5.9545E1,7.782592E-1,-4.1361825E-4,1E0,3.0834095E0,1.2616523E-2,-3.3938214E-3,-2.4506952E-1,2.1385396E0,7.6718098E-3,3.9324374E-3,-5.207117E-3,5.992729E-4,1.7475333E-2,-3.615298E-3,2.1968376E-2,9.563604E-3,-2.302792E-2,1.1813804E-2,3.5455674E-3,-1.4449748E-3,2.5506166E-3,2.4055906E-4,1.4502875E-2,-4.121076E-3,-1.540726E-2],"split_indices":[44,18,6,6,0,24,18,6,51,31,39,8,19,30,1,0,0,0,0,0,0,0,0,0,0,0,0,0,0,0,0],"split_type":[0,0,0,0,0,0,0,0,0,0,0,0,0,0,0,0,0,0,0,0,0,0,0,0,0,0,0,0,0,0,0],"sum_hessian":[3.8964973E4,1.3125577E4,2.5839396E4,1.5586934E3,1.1566884E4,1.8797959E4,7.041437E3,1.3248982E3,2.3379517E2,1.1186636E4,3.8024768E2,3.749828E3,1.5048131E4,4.2863994E3,2.7550376E3,7.960068E2,5.288914E2,8.041401E1,1.5338116E2,1.1137465E4,4.917087E1,3.5448956E2,2.5758116E1,9.1908075E2,2.830747E3,4.0389353E3,1.1009195E4,4.0656638E3,2.2073573E2,2.4204612E3,3.3457648E2],"tree_param":{"num_deleted":"0","num_feature":"59","num_nodes":"31","size_leaf_vector":"1"}},{"base_weights":[1.5713413E-3,2.5292149E-2,-5.4731153E-2,-5.745898E-3,7.3799714E-2,-1.2171034E-2,-1.070577E-1,5.3363275E-2,-3.0194497E-2,1.14628986E-1,3.7513506E-2,-1.9125627E-2,2.8120872E-1,-1.0343891E-2,-1.3818845E-1,4.821152E-3,-3.1864847E-4,-2.485722E-3,1.8700606E-3,7.833835E-3,2.7016415E-3,-2.3237837E-3,3.2405022E-3,1.3626972E-3,-3.4558752E-3,2.1124583E-2,-1.4702165E-3,-9.591432E-3,1.8313598E-3,-7.7833408E-3,3.1916276E-3],"categories":[],"categories_nodes":[],"categories_segments":[],"categories_sizes":[],"default_left":[0,0,0,0,0,0,0,0,0,0,0,0,0,0,0,0,0,0,0,0,0,0,0,0,0,0,0,0,0,0,0],"id":32,"left_children":[1,3,5,7,9,11,13,15,17,19,21,23,25,27,29,-1,-1,-1,-1,-1,-1,-1,-1,-1,-1,-1,-1,-1,-1,-1,-1],"loss_changes":[5.1853474E1,4.1239822E1,2.5491673E1,2.4071115E1,1.5653072E1,1.2740646E1,1.5344753E1,1.2611002E1,1.5598604E1,1.2515244E1,1.3047135E1,1.4473913E1,6.785692E0,1.0989794E1,1.3864586E1,0E0,0E0,0E0,0E0,0E0,0E0,0E0,0E0,0E0,0E0,0E0,0E0,0E0,0E0,0E0,0E0],"parents":[2147483647,0,0,1,1,2,2,3,3,4,4,5,5,6,6,7,7,8,8,9,9,10,10,11,11,12,12,13,13,14,14],"right_children":[2,4,6,8,10,12,14,16,18,20,22,24,26,28,30,-1,-1,-1,-1,-1,-1,-1,-1,-1,-1,-1,-1,-1,-1,-1,-1],"split_conditions":[7.396184E-1,4.8383774E-4,1E0,-5E-1,1.4088786E2,5.0892234E-2,6.5081185E-1,2.65625E-1,6.5477115E-1,9.725126E-1,8.05853E-3,-3.356555E-2,7.635205E-1,7.4469745E-1,7.416528E-3,4.821152E-3,-3.1864847E-4,-2.485722E-3,1.8700606E-3,7.833835E-3,2.7016415E-3,-2.3237837E-3,3.2405022E-3,1.3626972E-3,-3.4558752E-3,2.1124583E-2,-1.4702165E-3,-9.591432E-3,1.8313598E-3,-7.7833408E-3,3.1916276E-3],"split_indices":[18,10,52,46,24,5,31,15,13,30,44,33,13,26,0,0,0,0,0,0,0,0,0,0,0,0,0,0,0,0,0],"split_type":[0,0,0,0,0,0,0,0,0,0,0,0,0,0,0,0,0,0,0,0,0,0,0,0,0,0,0,0,0,0,0],"sum_hessian":[3.883769E4,2.733971E4,1.14979795E4,1.6662096E4,1.0677614E4,6.3546553E3,5.143324E3,4.861551E3,1.1800545E4,5.006238E3,5.671377E3,6.2154014E3,1.3925403E2,1.2618679E3,3.8814565E3,2.8330608E3,2.0284897E3,9.168911E3,2.6316348E3,2.9410269E3,2.0652107E3,1.381247E3,4.29013E3,3.2149902E3,3.0004111E3,9.6692E1,4.2562027E1,2.6065002E2,1.00121783E3,3.5779944E3,3.0346213E2],"tree_param":{"num_deleted":"0","num_feature":"59","num_nodes":"31","size_leaf_vector":"1"}},{"base_weights":[-2.9922158E-3,4.938015E-2,-2.893024E-2,1.1849112E-1,2.0990437E-2,-6.665608E-2,8.779481E-3,1.5054901E-1,-1.5814265E-2,5.1146608E-2,-4.825863E-2,-9.029077E-2,-4.898453E-3,4.8857154E-3,2.7714488E-1,1.0029266E-2,4.2919735E-3,6.4125755E-3,-6.956104E-3,1.1095272E-2,1.6720401E-3,-1.2389173E-3,-1.0380691E-2,-2.4801495E-3,-6.313991E-3,6.3655735E-3,-1.7123305E-3,-8.048842E-3,5.7600363E-4,3.2197095E-2,8.659191E-3],"categories":[],"categories_nodes":[],"categories_segments":[],"categories_sizes":[],"default_left":[0,0,0,0,0,0,0,0,0,0,0,0,0,0,0,0,0,0,0,0,0,0,0,0,0,0,0,0,0,0,0],"id":33,"left_children":[1,3,5,7,9,11,13,15,17,19,21,23,25,27,29,-1,-1,-1,-1,-1,-1,-1,-1,-1,-1,-1,-1,-1,-1,-1,-1],"loss_changes":[5.2962437E1,2.5169966E1,3.71868E1,1.627753E1,1.9153036E1,1.8964397E1,1.3339784E1,9.441559E0,1.289872E1,1.9047447E1,1.0116392E1,1.3605469E1,1.4019572E1,1.4015849E1,5.594553E0,0E0,0E0,0E0,0E0,0E0,0E0,0E0,0E0,0E0,0E0,0E0,0E0,0E0,0E0,0E0,0E0],"parents":[2147483647,0,0,1,1,2,2,3,3,4,4,5,5,6,6,7,7,8,8,9,9,10,10,11,11,12,12,13,13,14,14],"right_children":[2,4,6,8,10,12,14,16,18,20,22,24,26,28,30,-1,-1,-1,-1,-1,-1,-1,-1,-1,-1,-1,-1,-1,-1,-1,-1],"split_conditions":[3.2258064E-1,-4.7093877E-1,1.2674488E-4,2.9854166E2,1E0,1E0,7.160004E1,-2.3379626E-3,1.3291305E-1,3.805428E1,2.1092637E-2,0E0,-1.3127489E-3,-9.216386E-3,-1.4208932E3,1.0029266E-2,4.2919735E-3,6.4125755E-3,-6.956104E-3,1.1095272E-2,1.6720401E-3,-1.2389173E-3,-1.0380691E-2,-2.4801495E-3,-6.313991E-3,6.3655735E-3,-1.7123305E-3,-8.048842E-3,5.7600363E-4,3.2197095E-2,8.659191E-3],"split_indices":[18,58,10,25,54,54,34,2,15,34,44,46,2,11,56,0,0,0,0,0,0,0,0,0,0,0,0,0,0,0,0],"split_type":[0,0,0,0,0,0,0,0,0,0,0,0,0,0,0,0,0,0,0,0,0,0,0,0,0,0,0,0,0,0,0],"sum_hessian":[3.899261E4,1.2900894E4,2.6091715E4,3.7415347E3,9.159358E3,1.3054407E4,1.3037309E4,3.0260706E3,7.15464E2,6.391691E3,2.7676677E3,9.427857E3,3.6265496E3,1.2859544E4,1.7776433E2,1.6918807E3,1.3341898E3,3.261264E2,3.8933762E2,5.897606E2,5.80193E3,2.4227405E3,3.4492734E2,4.443684E3,4.9841733E3,6.495666E2,2.9769832E3,4.8431653E2,1.2375228E4,3.1397577E1,1.4636674E2],"tree_param":{"num_deleted":"0","num_feature":"59","num_nodes":"31","size_leaf_vector":"1"}},{"base_weights":[8.0363086E-4,-2.8467735E-2,4.65068E-2,-8.753343E-3,-9.84091E-2,7.808188E-2,-0E0,5.2678687E-3,-6.8646766E-2,-1.5602432E-2,-1.4221397E-1,1.3698745E-1,2.8276911E-2,2.2558512E-2,-8.9524984E-2,1.5052002E-3,-1.5621402E-3,-4.877296E-3,2.021491E-3,3.1385657E-3,-6.498046E-3,-1.3004529E-2,-5.3620776E-3,1.1208323E-2,5.22927E-3,-2.7897235E-3,2.8403318E-3,-8.723871E-4,3.5890497E-3,-1.00442935E-2,-7.3576247E-4],"categories":[],"categories_nodes":[],"categories_segments":[],"categories_sizes":[],"default_left":[0,0,0,0,0,0,0,0,0,0,0,0,0,0,0,0,0,0,0,0,0,0,0,0,0,0,0,0,0,0,0],"id":34,"left_children":[1,3,5,7,9,11,13,15,17,19,21,23,25,27,29,-1,-1,-1,-1,-1,-1,-1,-1,-1,-1,-1,-1,-1,-1,-1,-1],"loss_changes":[5.217132E1,3.263768E1,2.2444782E1,1.5638934E1,1.873304E1,2.6470726E1,1.2500517E1,1.36219015E1,1.1209799E1,1.638782E1,1.3507698E1,1.128257E1,1.1862294E1,9.729336E0,1.0166062E1,0E0,0E0,0E0,0E0,0E0,0E0,0E0,0E0,0E0,0E0,0E0,0E0,0E0,0E0,0E0,0E0],"parents":[2147483647,0,0,1,1,2,2,3,3,4,4,5,5,6,6,7,7,8,8,9,9,10,10,11,11,12,12,13,13,14,14],"right_children":[2,4,6,8,10,12,14,16,18,20,22,24,26,28,30,-1,-1,-1,-1,-1,-1,-1,-1,-1,-1,-1,-1,-1,-1,-1,-1],"split_conditions":[6.303616E-4,7.972028E-1,6.706056E-1,4.328167E-1,1.2691622E-3,1.4088786E2,3.7404397E-1,1.7501024E1,6.277355E4,3.9349325E0,6.4595E1,1.9644624E-1,8.53617E-3,-8.659014E-2,-7.202014E-4,1.5052002E-3,-1.5621402E-3,-4.877296E-3,2.021491E-3,3.1385657E-3,-6.498046E-3,-1.3004529E-2,-5.3620776E-3,1.1208323E-2,5.22927E-3,-2.7897235E-3,2.8403318E-3,-8.723871E-4,3.5890497E-3,-1.00442935E-2,-7.3576247E-4],"split_indices":[10,18,18,15,6,24,33,36,42,38,25,18,44,41,7,0,0,0,0,0,0,0,0,0,0,0,0,0,0,0,0],"split_type":[0,0,0,0,0,0,0,0,0,0,0,0,0,0,0,0,0,0,0,0,0,0,0,0,0,0,0,0,0,0,0],"sum_hessian":[3.8974586E4,2.374604E4,1.5228547E4,1.8540068E4,5.205971E3,9.08064E3,6.147907E3,1.5013282E4,3.5267856E3,1.8113984E3,3.3945725E3,4.147023E3,4.933616E3,4.9049663E3,1.2429409E3,8.952007E3,6.061275E3,2.7957627E3,7.310231E2,1.0709507E3,7.404477E2,7.627843E2,2.6317883E3,1.1073092E3,3.0397139E3,1.2399381E3,3.6936782E3,2.696368E3,2.2085986E3,4.9069882E2,7.522422E2],"tree_param":{"num_deleted":"0","num_feature":"59","num_nodes":"31","size_leaf_vector":"1"}},{"base_weights":[3.4949076E-3,-2.344497E-2,4.1496247E-2,2.108397E-2,-4.8940133E-2,7.054457E-2,-1.2786575E-3,2.6359987E-3,9.4687566E-2,-1.285033E-1,-3.4993984E-2,1.5307735E-1,4.7175806E-2,-2.6451686E-1,5.7901707E-3,6.183505E-4,-8.938081E-3,1.8833011E-2,3.5483378E-3,-2.2785303E-3,-1.003722E-2,-2.535422E-3,1.4317987E-3,1.5723689E-2,4.7024717E-3,-7.880707E-4,3.8199623E-3,-2.673772E-2,-3.5986342E-3,-6.097899E-4,4.182341E-3],"categories":[],"categories_nodes":[],"categories_segments":[],"categories_sizes":[],"default_left":[0,0,0,0,0,0,0,0,0,0,0,0,0,0,0,0,0,0,0,0,0,0,0,0,0,0,0,0,0,0,0],"id":35,"left_children":[1,3,5,7,9,11,13,15,17,19,21,23,25,27,29,-1,-1,-1,-1,-1,-1,-1,-1,-1,-1,-1,-1,-1,-1,-1,-1],"loss_changes":[3.9854084E1,2.586599E1,2.0145689E1,1.1136253E1,1.5887455E1,1.834959E1,1.2409205E1,1.1551116E1,1.0436148E1,1.2576183E1,1.2371153E1,1.959092E1,1.3910238E1,8.27842E0,8.977288E0,0E0,0E0,0E0,0E0,0E0,0E0,0E0,0E0,0E0,0E0,0E0,0E0,0E0,0E0,0E0,0E0],"parents":[2147483647,0,0,1,1,2,2,3,3,4,4,5,5,6,6,7,7,8,8,9,9,10,10,11,11,12,12,13,13,14,14],"right_children":[2,4,6,8,10,12,14,16,18,20,22,24,26,28,30,-1,-1,-1,-1,-1,-1,-1,-1,-1,-1,-1,-1,-1,-1,-1,-1],"split_conditions":[4.8383774E-4,3.2258064E-1,6.706056E-1,5.942948E2,-7.818315E-1,5.9545E1,6.4417195E-1,7.047E-1,3.46385E-3,5.331565E1,1.8948127E-1,-3.4775757E-3,8.453614E-3,8.2302034E-1,3.7180376E-3,6.183505E-4,-8.938081E-3,1.8833011E-2,3.5483378E-3,-2.2785303E-3,-1.003722E-2,-2.535422E-3,1.4317987E-3,1.5723689E-2,4.7024717E-3,-7.880707E-4,3.8199623E-3,-2.673772E-2,-3.5986342E-3,-6.097899E-4,4.182341E-3],"split_indices":[10,18,18,56,48,24,26,19,45,34,19,8,44,18,16,0,0,0,0,0,0,0,0,0,0,0,0,0,0,0,0],"split_type":[0,0,0,0,0,0,0,0,0,0,0,0,0,0,0,0,0,0,0,0,0,0,0,0,0,0,0,0,0,0,0],"sum_hessian":[3.8902074E4,2.2749861E4,1.6152212E4,8.26906E3,1.4480801E4,9.63157E3,6.520642E3,6.6268696E3,1.6421902E3,2.1428738E3,1.2337928E4,2.109784E3,7.521786E3,1.6945938E2,6.3511826E3,6.299127E3,3.277426E2,1.1838452E2,1.5238057E3,1.0078546E3,1.135019E3,9.907772E3,2.4301548E3,5.546526E2,1.5551313E3,2.3749805E3,5.1468057E3,6.464681E1,1.0481257E2,5.152302E3,1.1988807E3],"tree_param":{"num_deleted":"0","num_feature":"59","num_nodes":"31","size_leaf_vector":"1"}},{"base_weights":[-2.3304395E-4,3.1403944E-2,-3.1509355E-2,7.929191E-2,3.530244E-3,2.5591781E-2,-5.558647E-2,5.6914262E-2,1.8833177E-1,-1.03253886E-1,1.3693561E-2,5.6418665E-2,-5.9332054E-2,-2.6645806E-2,-1.13163345E-1,3.685909E-4,4.6271286E-3,1.9136228E-2,6.848288E-3,5.105742E-4,-1.1054661E-2,5.154853E-3,-6.1247854E-5,7.890453E-3,1.5026305E-3,-1.4339483E-2,-1.6615683E-3,3.1452214E-3,-1.955441E-3,8.017376E-3,-6.1804065E-3],"categories":[],"categories_nodes":[],"categories_segments":[],"categories_sizes":[],"default_left":[0,0,0,0,0,0,0,0,0,0,0,0,0,0,0,0,0,0,0,0,0,0,0,0,0,0,0,0,0,0,0],"id":36,"left_children":[1,3,5,7,9,11,13,15,17,19,21,23,25,27,29,-1,-1,-1,-1,-1,-1,-1,-1,-1,-1,-1,-1,-1,-1,-1,-1],"loss_changes":[3.8592983E1,2.5776155E1,2.7023808E1,1.706075E1,1.3227756E1,1.5231927E1,2.2875385E1,1.0342194E1,1.121703E1,1.4366569E1,1.5055996E1,1.1219535E1,8.786439E0,1.027411E1,1.3232452E1,0E0,0E0,0E0,0E0,0E0,0E0,0E0,0E0,0E0,0E0,0E0,0E0,0E0,0E0,0E0,0E0],"parents":[2147483647,0,0,1,1,2,2,3,3,4,4,5,5,6,6,7,7,8,8,9,9,10,10,11,11,12,12,13,13,14,14],"right_children":[2,4,6,8,10,12,14,16,18,20,22,24,26,28,30,-1,-1,-1,-1,-1,-1,-1,-1,-1,-1,-1,-1,-1,-1,-1,-1],"split_conditions":[1E0,-2.399258E-3,-5E-1,3.888651E-3,-5.0927466E-1,7.396184E-1,2.4228192E2,-1.3255082E-1,2.038586E4,-6.2778926E-1,-7.070188E-1,6.458797E-2,1.0258E4,-1.2394344E3,2.9419136E-4,3.685909E-4,4.6271286E-3,1.9136228E-2,6.848288E-3,5.105742E-4,-1.1054661E-2,5.154853E-3,-6.1247854E-5,7.890453E-3,1.5026305E-3,-1.4339483E-2,-1.6615683E-3,3.1452214E-3,-1.955441E-3,8.017376E-3,-6.1804065E-3],"split_indices":[52,9,46,40,19,18,55,19,42,19,58,15,43,55,12,0,0,0,0,0,0,0,0,0,0,0,0,0,0,0,0],"split_type":[0,0,0,0,0,0,0,0,0,0,0,0,0,0,0,0,0,0,0,0,0,0,0,0,0,0,0,0,0,0,0],"sum_hessian":[3.8992867E4,1.9368756E4,1.962411E4,7.109424E3,1.2259333E4,5.808013E3,1.3816096E4,5.912761E3,1.1966626E3,1.0528665E3,1.1206467E4,4.271086E3,1.5369271E3,9.21095E3,4.6051455E3,2.4876692E3,3.425092E3,2.393037E2,9.573589E2,5.343913E2,5.184751E2,1.6079346E3,9.598532E3,8.684843E2,3.4026016E3,1.4912314E2,1.387804E3,1.1130317E3,8.0979185E3,1.6323051E2,4.441915E3],"tree_param":{"num_deleted":"0","num_feature":"59","num_nodes":"31","size_leaf_vector":"1"}},{"base_weights":[-2.7373424E-3,7.612685E-2,-1.4681635E-2,1.4921495E-1,2.1118341E-2,5.4010212E-2,-2.4340628E-2,2.0778342E-1,6.562662E-2,6.0897283E-2,-1.02147974E-1,4.4408925E-2,3.313259E-1,-4.4596497E-2,1.3302703E-2,8.611585E-3,2.1062028E-2,1.7796341E-2,6.2551844E-4,4.20542E-3,-1.0044866E-2,-8.942894E-3,2.9796772E-3,3.4576654E-3,-2.3906576E-3,-7.395185E-3,2.4359839E-2,-1.6530076E-4,-3.0902268E-3,4.1289153E-4,1.2757246E-2],"categories":[],"categories_nodes":[],"categories_segments":[],"categories_sizes":[],"default_left":[0,0,0,0,0,0,0,0,0,0,0,0,0,0,0,0,0,0,0,0,0,0,0,0,0,0,0,0,0,0,0],"id":37,"left_children":[1,3,5,7,9,11,13,15,17,19,21,23,25,27,29,-1,-1,-1,-1,-1,-1,-1,-1,-1,-1,-1,-1,-1,-1,-1,-1],"loss_changes":[3.664152E1,2.0374695E1,2.2435379E1,1.0367542E1,1.4364387E1,1.0631396E1,2.2674496E1,8.733875E0,1.3727297E1,1.3491568E1,8.993523E0,9.237951E0,1.0784105E1,1.3663311E1,1.2383365E1,0E0,0E0,0E0,0E0,0E0,0E0,0E0,0E0,0E0,0E0,0E0,0E0,0E0,0E0,0E0,0E0],"parents":[2147483647,0,0,1,1,2,2,3,3,4,4,5,5,6,6,7,7,8,8,9,9,10,10,11,11,12,12,13,13,14,14],"right_children":[2,4,6,8,10,12,14,16,18,20,22,24,26,28,30,-1,-1,-1,-1,-1,-1,-1,-1,-1,-1,-1,-1,-1,-1,-1,-1],"split_conditions":[3.1837963E1,1.3219214E2,1.2346419E-1,1E0,1E0,5E0,6.583429E-4,6.0132174E-3,-7.818315E-1,1.5574864E0,7.5665995E-2,5.365688E-1,1.898864E-3,-5E-1,9.173733E-3,8.611585E-3,2.1062028E-2,1.7796341E-2,6.2551844E-4,4.20542E-3,-1.0044866E-2,-8.942894E-3,2.9796772E-3,3.4576654E-3,-2.3906576E-3,-7.395185E-3,2.4359839E-2,-1.6530076E-4,-3.0902268E-3,4.1289153E-4,1.2757246E-2],"split_indices":[35,24,18,23,52,52,10,11,48,29,19,19,9,46,39,0,0,0,0,0,0,0,0,0,0,0,0,0,0,0,0],"split_type":[0,0,0,0,0,0,0,0,0,0,0,0,0,0,0,0,0,0,0,0,0,0,0,0,0,0,0,0,0,0,0],"sum_hessian":[3.8952824E4,5.1090273E3,3.3843797E4,2.182485E3,2.9265422E3,4.1566274E3,2.9687172E4,1.2719008E3,9.1058435E2,2.2205854E3,7.059568E2,4.0266235E3,1.3000401E2,1.9317871E4,1.0369301E4,1.1020682E3,1.698325E2,1.3351944E2,7.770649E2,2.0463649E3,1.7422049E2,4.8268512E2,2.2327168E2,3.1843223E3,8.423011E2,3.0394684E1,9.960934E1,5.70143E3,1.361644E4,1.016653E4,2.0277003E2],"tree_param":{"num_deleted":"0","num_feature":"59","num_nodes":"31","size_leaf_vector":"1"}},{"base_weights":[-3.6320335E-3,-3.6155336E-2,2.1652278E-2,1.5734028E-2,-6.6657715E-2,4.3123115E-2,-1.1135595E-2,-1.3169316E-2,1.1105371E-1,-1.4710873E-1,-4.1867398E-2,9.165249E-2,1.8227002E-2,-1.694394E-2,2.8656387E-1,-3.9655184E-3,1.5245939E-3,2.500076E-3,1.1344257E-2,-9.357058E-3,-2.1357338E-3,-5.602347E-3,-4.9511384E-4,6.6893706E-3,1.3536679E-3,3.4454071E-3,-3.7979608E-4,-1.6943794E-3,2.565488E-3,1.9404897E-2,-2.9554577E-3],"categories":[],"categories_nodes":[],"categories_segments":[],"categories_sizes":[],"default_left":[0,0,0,0,0,0,0,0,0,0,0,0,0,0,0,0,0,0,0,0,0,0,0,0,0,0,0,0,0,0,0],"id":38,"left_children":[1,3,5,7,9,11,13,15,17,19,21,23,25,27,29,-1,-1,-1,-1,-1,-1,-1,-1,-1,-1,-1,-1,-1,-1,-1,-1],"loss_changes":[3.2033417E1,2.7038195E1,1.5444239E1,1.7470646E1,2.1219013E1,1.5886728E1,1.4707398E1,1.4017552E1,1.0098265E1,1.0264202E1,1.8343452E1,1.20024605E1,1.1548428E1,9.809697E0,6.146163E0,0E0,0E0,0E0,0E0,0E0,0E0,0E0,0E0,0E0,0E0,0E0,0E0,0E0,0E0,0E0,0E0],"parents":[2147483647,0,0,1,1,2,2,3,3,4,4,5,5,6,6,7,7,8,8,9,9,10,10,11,11,12,12,13,13,14,14],"right_children":[2,4,6,8,10,12,14,16,18,20,22,24,26,28,30,-1,-1,-1,-1,-1,-1,-1,-1,-1,-1,-1,-1,-1,-1,-1,-1],"split_conditions":[-4.0866507E-4,3.2258064E-1,6.706056E-1,6.5948987E2,5.909E1,2.641616E4,7.160004E1,-3.9499285E-4,1.1374952E0,1.0563188E0,1.1714631E-1,-8.579327E-4,-4.2821146E-3,3.2420615E-3,7.0710677E-1,-3.9655184E-3,1.5245939E-3,2.500076E-3,1.1344257E-2,-9.357058E-3,-2.1357338E-3,-5.602347E-3,-4.9511384E-4,6.6893706E-3,1.3536679E-3,3.4454071E-3,-3.7979608E-4,-1.6943794E-3,2.565488E-3,1.9404897E-2,-2.9554577E-3],"split_indices":[10,18,18,56,25,43,34,8,26,26,14,8,9,16,46,0,0,0,0,0,0,0,0,0,0,0,0,0,0,0,0],"split_type":[0,0,0,0,0,0,0,0,0,0,0,0,0,0,0,0,0,0,0,0,0,0,0,0,0,0,0,0,0,0,0],"sum_hessian":[3.892709E4,1.704257E4,2.1884521E4,6.2981167E3,1.0744454E4,1.3242025E4,8.642495E3,4.8279717E3,1.4701451E3,2.5156165E3,8.228838E3,4.4717603E3,8.770265E3,8.4850205E3,1.5747475E2,1.9272534E3,2.9007183E3,9.730589E2,4.9708627E2,1.8085442E3,7.0707245E2,2.56142E3,5.6674175E3,2.6935193E3,1.778241E3,2.970541E3,5.799724E3,6.811314E3,1.6737065E3,1.2348339E2,3.3991352E1],"tree_param":{"num_deleted":"0","num_feature":"59","num_nodes":"31","size_leaf_vector":"1"}},{"base_weights":[-3.4903341E-3,2.511757E-2,-3.1883985E-2,8.0584854E-2,5.5907723E-3,2.444184E-2,-5.5757985E-2,5.953841E-2,2.2998095E-1,-8.520529E-2,1.3974729E-2,4.5781143E-2,-8.195902E-2,7.3851675E-2,-6.714089E-2,9.289579E-3,1.945868E-3,2.3951462E-2,8.658431E-3,-6.3763545E-3,9.150344E-3,5.20665E-4,9.589229E-3,4.7187353E-3,-1.1244413E-5,-7.094003E-3,6.3017467E-3,1.1109858E-2,3.0218402E-4,1.1602651E-3,-4.2163325E-3],"categories":[],"categories_nodes":[],"categories_segments":[],"categories_sizes":[],"default_left":[0,0,0,0,0,0,0,0,0,0,0,0,0,0,0,0,0,0,0,0,0,0,0,0,0,0,0,0,0,0,0],"id":39,"left_children":[1,3,5,7,9,11,13,15,17,19,21,23,25,27,29,-1,-1,-1,-1,-1,-1,-1,-1,-1,-1,-1,-1,-1,-1,-1,-1],"loss_changes":[3.1601639E1,2.0878075E1,2.6312084E1,1.5447132E1,1.0847898E1,1.3168119E1,2.028371E1,1.1242777E1,7.6075706E0,1.3711086E1,8.10801E0,1.0932862E1,1.2120825E1,1.0872965E1,1.9691982E1,0E0,0E0,0E0,0E0,0E0,0E0,0E0,0E0,0E0,0E0,0E0,0E0,0E0,0E0,0E0,0E0],"parents":[2147483647,0,0,1,1,2,2,3,3,4,4,5,5,6,6,7,7,8,8,9,9,10,10,11,11,12,12,13,13,14,14],"right_children":[2,4,6,8,10,12,14,16,18,20,22,24,26,28,30,-1,-1,-1,-1,-1,-1,-1,-1,-1,-1,-1,-1,-1,-1,-1,-1],"split_conditions":[1E0,-3.8889935E-3,-5E-1,1.5526343E-2,-5.182549E-1,1.8061543E-2,-1.2394344E3,1.3896135E-3,1.3507423E-1,1.6110656E-3,2.0087931E-2,2.555545E-3,1.9204208E-3,1.8964E4,1.271042E-1,9.289579E-3,1.945868E-3,2.3951462E-2,8.658431E-3,-6.3763545E-3,9.150344E-3,5.20665E-4,9.589229E-3,4.7187353E-3,-1.1244413E-5,-7.094003E-3,6.3017467E-3,1.1109858E-2,3.0218402E-4,1.1602651E-3,-4.2163325E-3],"split_indices":[52,2,46,5,19,44,55,45,18,11,9,4,10,43,18,0,0,0,0,0,0,0,0,0,0,0,0,0,0,0,0],"split_type":[0,0,0,0,0,0,0,0,0,0,0,0,0,0,0,0,0,0,0,0,0,0,0,0,0,0,0,0,0,0,0],"sum_hessian":[3.888646E4,1.9352893E4,1.9533566E4,5.021659E3,1.4331233E4,5.8022764E3,1.3731291E4,4.4135747E3,6.0808417E2,1.1975027E3,1.3133731E4,4.843193E3,9.590831E2,1.0992756E3,1.2632016E4,6.072319E2,3.806343E3,1.02777534E2,5.0530667E2,1.0397839E3,1.5771883E2,1.2886538E4,2.4719308E2,2.3633743E3,2.4798188E3,7.49544E2,2.0953917E2,3.3664844E2,7.626272E2,2.0092688E3,1.0622747E4],"tree_param":{"num_deleted":"0","num_feature":"59","num_nodes":"31","size_leaf_vector":"1"}},{"base_weights":[-2.7378164E-3,1.2841943E-2,-5.1944062E-2,-9.596165E-3,4.7048863E-2,-2.299955E-3,-8.8597216E-2,-1.9953655E-2,8.144905E-2,1.0908269E-1,2.9314E-2,-3.411477E-2,1.1298438E-1,-9.979863E-2,1.359463E-1,-4.307186E-5,-3.0899688E-3,1.413843E-3,9.569426E-3,7.835161E-3,-1.791261E-3,2.558563E-3,-2.5066233E-3,1.1678394E-2,-2.4431222E-3,1.2244246E-2,-0E0,-2.5804317E-2,-4.69444E-3,1.759032E-2,-3.252972E-3],"categories":[],"categories_nodes":[],"categories_segments":[],"categories_sizes":[],"default_left":[0,0,0,0,0,0,0,0,0,0,0,0,0,0,0,0,0,0,0,0,0,0,0,0,0,0,0,0,0,0,0],"id":40,"left_children":[1,3,5,7,9,11,13,15,17,19,21,23,25,27,29,-1,-1,-1,-1,-1,-1,-1,-1,-1,-1,-1,-1,-1,-1,-1,-1],"loss_changes":[2.9897102E1,2.2733269E1,1.697877E1,1.6770958E1,1.27509365E1,1.46163E1,1.357645E1,1.2746132E1,1.0354311E1,1.8046509E1,1.5888369E1,1.2294017E1,1.3032827E1,1.1784294E1,1.1411188E1,0E0,0E0,0E0,0E0,0E0,0E0,0E0,0E0,0E0,0E0,0E0,0E0,0E0,0E0,0E0,0E0],"parents":[2147483647,0,0,1,1,2,2,3,3,4,4,5,5,6,6,7,7,8,8,9,9,10,10,11,11,12,12,13,13,14,14],"right_children":[2,4,6,8,10,12,14,16,18,20,22,24,26,28,30,-1,-1,-1,-1,-1,-1,-1,-1,-1,-1,-1,-1,-1,-1,-1,-1],"split_conditions":[7.972028E-1,4.8383774E-4,1.0039847E-3,7.759716E-1,5.9545E1,1.0166805E-3,6.8143965E-3,3.844905E1,1.7496808E-2,-2.2517589E-1,1.3816168E0,9.16118E3,9.476551E-4,8.108735E-4,7.6718098E-3,-4.307186E-5,-3.0899688E-3,1.413843E-3,9.569426E-3,7.835161E-3,-1.791261E-3,2.558563E-3,-2.5066233E-3,1.1678394E-2,-2.4431222E-3,1.2244246E-2,-0E0,-2.5804317E-2,-4.69444E-3,1.759032E-2,-3.252972E-3],"split_indices":[18,10,6,13,24,12,28,36,19,58,30,43,8,28,1,0,0,0,0,0,0,0,0,0,0,0,0,0,0,0,0],"split_type":[0,0,0,0,0,0,0,0,0,0,0,0,0,0,0,0,0,0,0,0,0,0,0,0,0,0,0,0,0,0,0],"sum_hessian":[3.8938164E4,2.9561674E4,9.376491E3,1.7836285E4,1.1725389E4,3.9963352E3,5.3801562E3,1.6027815E4,1.8084694E3,2.5886272E3,9.136762E3,3.1415593E3,8.547759E2,5.1314062E3,2.4875026E2,1.102612E4,5.0016953E3,1.2293005E3,5.791688E2,1.9532367E3,6.353906E2,7.1766836E3,1.9600778E3,1.5662831E2,2.984931E3,3.9534723E2,4.5942868E2,6.341786E1,5.0679883E3,1.2053334E2,1.2821692E2],"tree_param":{"num_deleted":"0","num_feature":"59","num_nodes":"31","size_leaf_vector":"1"}},{"base_weights":[1.497262E-3,2.924868E-2,-2.5843557E-2,8.615174E-2,8.378996E-3,-8.736016E-3,-7.3626764E-2,7.59243E-2,3.8642573E-1,5.069027E-2,-6.3092983E-3,-1.9708008E-1,-4.305764E-3,1.1988925E-2,-9.953269E-2,7.5527937E-3,1.7279554E-3,2.389748E-2,1.9678181E-4,3.5664625E-3,-7.963264E-3,-1.3459636E-3,2.3783876E-3,-1.6881092E-2,-0E0,-4.7211154E-4,6.8370253E-3,-6.2061516E-3,4.3596197E-3,-6.2189917E-3,1.3127263E-3],"categories":[],"categories_nodes":[],"categories_segments":[],"categories_sizes":[],"default_left":[0,0,0,0,0,0,0,0,0,0,0,0,0,0,0,0,0,0,0,0,0,0,0,0,0,0,0,0,0,0,0],"id":41,"left_children":[1,3,5,7,9,11,13,15,17,19,21,23,25,27,29,-1,-1,-1,-1,-1,-1,-1,-1,-1,-1,-1,-1,-1,-1,-1,-1],"loss_changes":[2.9555363E1,2.2877464E1,1.59375925E1,1.5293491E1,8.854747E0,1.185562E1,1.1519375E1,1.5380638E1,5.324066E0,1.5874451E1,1.1654185E1,8.859164E0,1.01181555E1,1.2220361E1,1.2504879E1,0E0,0E0,0E0,0E0,0E0,0E0,0E0,0E0,0E0,0E0,0E0,0E0,0E0,0E0,0E0,0E0],"parents":[2147483647,0,0,1,1,2,2,3,3,4,4,5,5,6,6,7,7,8,8,9,9,10,10,11,11,12,12,13,13,14,14],"right_children":[2,4,6,8,10,12,14,16,18,20,22,24,26,28,30,-1,-1,-1,-1,-1,-1,-1,-1,-1,-1,-1,-1,-1,-1,-1,-1],"split_conditions":[1E0,-3.5601137E-3,7.396184E-1,5.8856046E-1,3.308514E-1,1.651E1,6.363097E-1,3.042691E4,4.8159226E-3,9.789568E4,8.504593E-4,1.141498E4,7.8670853E-1,2.965E4,4.74951E-3,7.5527937E-3,1.7279554E-3,2.389748E-2,1.9678181E-4,3.5664625E-3,-7.963264E-3,-1.3459636E-3,2.3783876E-3,-1.6881092E-2,-0E0,-4.7211154E-4,6.8370253E-3,-6.2061516E-3,4.3596197E-3,-6.2189917E-3,1.3127263E-3],"split_indices":[52,8,18,19,18,25,31,42,28,42,11,42,33,42,16,0,0,0,0,0,0,0,0,0,0,0,0,0,0,0,0],"split_type":[0,0,0,0,0,0,0,0,0,0,0,0,0,0,0,0,0,0,0,0,0,0,0,0,0,0,0,0,0,0,0],"sum_hessian":[3.893841E4,1.934208E4,1.959633E4,5.1732354E3,1.4168845E4,1.4449797E4,5.146533E3,5.0121157E3,1.6111995E2,3.6655742E3,1.05032705E4,3.2189453E2,1.4127902E4,1.1871718E3,3.9593616E3,1.7663893E3,3.2457263E3,1.2689391E2,3.422604E1,3.3448354E3,3.207387E2,7.6123335E3,2.8909375E3,1.8410619E2,1.3778833E2,1.3642828E4,4.8507425E2,4.166039E2,7.705678E2,3.3129502E3,6.464115E2],"tree_param":{"num_deleted":"0","num_feature":"59","num_nodes":"31","size_leaf_vector":"1"}},{"base_weights":[-1.5497075E-3,1.9892476E-2,-3.3422157E-2,-2.8309748E-2,3.719939E-2,-5.3690374E-2,4.2811442E-2,-9.514822E-3,-1.24777414E-1,4.447918E-2,-1.2760045E-1,-6.9782E-2,3.2790165E-2,1.5465508E-1,6.9033384E-4,4.7710123E-3,-1.5234278E-3,6.396772E-3,-9.49404E-3,8.0078247E-4,3.412525E-3,-3.7196428E-3,-1.9454168E-2,1.6307883E-2,-3.7255324E-3,-1.5573881E-2,2.5253037E-3,1.9014394E-2,5.4265703E-3,-2.2614698E-3,5.9759156E-3],"categories":[],"categories_nodes":[],"categories_segments":[],"categories_sizes":[],"default_left":[0,0,0,0,0,0,0,0,0,0,0,0,0,0,0,0,0,0,0,0,0,0,0,0,0,0,0,0,0,0,0],"id":42,"left_children":[1,3,5,7,9,11,13,15,17,19,21,23,25,27,29,-1,-1,-1,-1,-1,-1,-1,-1,-1,-1,-1,-1,-1,-1,-1,-1],"loss_changes":[2.6660366E1,1.9444103E1,2.4280787E1,1.0993668E1,2.0526283E1,1.7325493E1,1.5342707E1,1.1281128E1,1.6508213E1,1.1033024E1,9.426052E0,1.9488888E1,1.1658024E1,8.603666E0,1.3204504E1,0E0,0E0,0E0,0E0,0E0,0E0,0E0,0E0,0E0,0E0,0E0,0E0,0E0,0E0,0E0,0E0],"parents":[2147483647,0,0,1,1,2,2,3,3,4,4,5,5,6,6,7,7,8,8,9,9,10,10,11,11,12,12,13,13,14,14],"right_children":[2,4,6,8,10,12,14,16,18,20,22,24,26,28,30,-1,-1,-1,-1,-1,-1,-1,-1,-1,-1,-1,-1,-1,-1,-1,-1],"split_conditions":[5.3109913E1,-2.4939755E-1,1.2259245E0,1.295242E0,5.833654E-3,6.949E4,-3.6083884E-4,1.659736E4,5.5387645E-4,-1.8369701E-16,6.300635E1,-6.306198E-3,-2.6089908E-3,1.2298063E-1,1.7604816E0,4.7710123E-3,-1.5234278E-3,6.396772E-3,-9.49404E-3,8.0078247E-4,3.412525E-3,-3.7196428E-3,-1.9454168E-2,1.6307883E-2,-3.7255324E-3,-1.5573881E-2,2.5253037E-3,1.9014394E-2,5.4265703E-3,-2.2614698E-3,5.9759156E-3],"split_indices":[34,19,29,29,7,42,1,42,16,47,35,7,1,41,30,0,0,0,0,0,0,0,0,0,0,0,0,0,0,0,0],"split_type":[0,0,0,0,0,0,0,0,0,0,0,0,0,0,0,0,0,0,0,0,0,0,0,0,0,0,0,0,0,0,0],"sum_hessian":[3.898085E4,2.3285824E4,1.5695029E4,6.135797E3,1.7150027E4,1.2410143E4,3.2848867E3,5.148556E3,9.8724084E2,1.6433807E4,7.162207E2,1.047379E4,1.936352E3,8.8851764E2,2.3963691E3,8.460573E2,4.3024985E3,1.9809737E2,7.891435E2,7.501739E3,8.932068E3,6.036371E2,1.1258363E2,1.1710373E2,1.0356687E4,8.794713E1,1.848405E3,1.4097507E2,7.475426E2,1.7245988E3,6.717703E2],"tree_param":{"num_deleted":"0","num_feature":"59","num_nodes":"31","size_leaf_vector":"1"}},{"base_weights":[1.5257957E-3,-3.2601472E-2,2.545617E-2,6.420447E-2,-4.549739E-2,3.638376E-2,-9.531448E-2,-1.6772257E-2,1.397786E-1,-1.5707761E-4,-6.872131E-2,5.5784605E-2,7.82537E-3,3.850568E-2,-1.3594903E-1,6.7157783E-3,-5.262666E-3,2.941E-3,1.0561874E-2,3.5673862E-3,-1.5443391E-3,-4.6909545E-3,-1.3660298E-3,8.266213E-3,2.2091095E-3,-5.523655E-3,1.0099609E-3,-1.1859566E-3,1.3604675E-2,-1.9380853E-2,-5.5565108E-3],"categories":[],"categories_nodes":[],"categories_segments":[],"categories_sizes":[],"default_left":[0,0,0,0,0,0,0,0,0,0,0,0,0,0,0,0,0,0,0,0,0,0,0,0,0,0,0,0,0,0,0],"id":43,"left_children":[1,3,5,7,9,11,13,15,17,19,21,23,25,27,29,-1,-1,-1,-1,-1,-1,-1,-1,-1,-1,-1,-1,-1,-1,-1,-1],"loss_changes":[3.1815178E1,2.002502E1,3.0208862E1,1.1633589E1,1.4851616E1,1.1586557E1,1.0431911E1,1.2141948E1,5.330576E0,1.0559823E1,9.587196E0,1.5642666E1,1.2413418E1,6.6719112E0,8.411331E0,0E0,0E0,0E0,0E0,0E0,0E0,0E0,0E0,0E0,0E0,0E0,0E0,0E0,0E0,0E0,0E0],"parents":[2147483647,0,0,1,1,2,2,3,3,4,4,5,5,6,6,7,7,8,8,9,9,10,10,11,11,12,12,13,13,14,14],"right_children":[2,4,6,8,10,12,14,16,18,20,22,24,26,28,30,-1,-1,-1,-1,-1,-1,-1,-1,-1,-1,-1,-1,-1,-1,-1,-1],"split_conditions":[5.6022094E-3,1.271042E-1,4.3673543E-3,4.0701754E-2,-2.5881904E-1,1E0,2.862044E2,6.633551E-1,8.3584654E-1,-5.1382538E-2,2.857143E-1,1.5941911E-3,-1.9089289E-2,1.6650766E0,4.1322445E1,6.7157783E-3,-5.262666E-3,2.941E-3,1.0561874E-2,3.5673862E-3,-1.5443391E-3,-4.6909545E-3,-1.3660298E-3,8.266213E-3,2.2091095E-3,-5.523655E-3,1.0099609E-3,-1.1859566E-3,1.3604675E-2,-1.9380853E-2,-5.5565108E-3],"split_indices":[44,18,6,18,46,52,55,30,29,33,14,45,4,31,35,0,0,0,0,0,0,0,0,0,0,0,0,0,0,0,0],"split_type":[0,0,0,0,0,0,0,0,0,0,0,0,0,0,0,0,0,0,0,0,0,0,0,0,0,0,0,0,0,0,0],"sum_hessian":[3.8955477E4,1.6038814E4,2.2916662E4,1.8739766E3,1.4164838E4,2.102596E4,1.8907007E3,9.0014307E2,9.738335E2,4.8141704E3,9.350667E3,1.2496685E4,8.529276E3,4.3471695E2,1.4559838E3,3.2732312E2,5.728199E2,4.6740332E2,5.0643018E2,1.4352781E3,3.3788923E3,5.8025703E3,3.548097E3,1.1822739E3,1.1314411E4,7.962624E2,7.7330137E3,3.4344012E2,9.127682E1,1.20518616E2,1.3354651E3],"tree_param":{"num_deleted":"0","num_feature":"59","num_nodes":"31","size_leaf_vector":"1"}},{"base_weights":[-2.031056E-3,2.4457749E-2,-2.8120901E-2,6.782934E-2,8.544689E-3,-8.354532E-3,-6.553947E-2,8.771763E-2,-7.091322E-2,-4.9292423E-2,1.807328E-2,-2.3397056E-2,8.533179E-2,-2.4791968E-1,-5.6063656E-2,-2.790107E-3,5.2493843E-3,-5.150442E-3,2.5321139E-2,-3.929816E-2,-1.7249249E-3,3.3910093E-3,1.0078313E-4,3.5318215E-3,-1.748627E-3,1.1325485E-2,1.7020259E-3,-3.4071417E-3,-1.904495E-2,9.902568E-3,-3.2425423E-3],"categories":[],"categories_nodes":[],"categories_segments":[],"categories_sizes":[],"default_left":[0,0,0,0,0,0,0,0,0,0,0,0,0,0,0,0,0,0,0,0,0,0,0,0,0,0,0,0,0,0,0],"id":44,"left_children":[1,3,5,7,9,11,13,15,17,19,21,23,25,27,29,-1,-1,-1,-1,-1,-1,-1,-1,-1,-1,-1,-1,-1,-1,-1,-1],"loss_changes":[2.689674E1,1.3234604E1,1.4437491E1,1.4287119E1,7.7632504E0,1.8076624E1,1.1317427E1,1.1286465E1,1.1780289E1,2.068643E1,9.638596E0,1.2055761E1,1.2529122E1,7.2491837E0,1.4316496E1,0E0,0E0,0E0,0E0,0E0,0E0,0E0,0E0,0E0,0E0,0E0,0E0,0E0,0E0,0E0,0E0],"parents":[2147483647,0,0,1,1,2,2,3,3,4,4,5,5,6,6,7,7,8,8,9,9,10,10,11,11,12,12,13,13,14,14],"right_children":[2,4,6,8,10,12,14,16,18,20,22,24,26,28,30,-1,-1,-1,-1,-1,-1,-1,-1,-1,-1,-1,-1,-1,-1,-1,-1],"split_conditions":[1E0,-3.5601137E-3,2.4228192E2,1.9504907E0,-2.1906674E-3,8.124975E2,-9.305997E-3,-5.847525E-3,3.65451E3,-1.2826567E-2,-3.5487332E-3,-4.230162E-3,1.4145783E-1,1.4476346E0,2.9419136E-4,-2.790107E-3,5.2493843E-3,-5.150442E-3,2.5321139E-2,-3.929816E-2,-1.7249249E-3,3.3910093E-3,1.0078313E-4,3.5318215E-3,-1.748627E-3,1.1325485E-2,1.7020259E-3,-3.4071417E-3,-1.904495E-2,9.902568E-3,-3.2425423E-3],"split_indices":[52,8,55,31,8,56,9,0,55,40,4,7,15,31,12,0,0,0,0,0,0,0,0,0,0,0,0,0,0,0,0],"split_type":[0,0,0,0,0,0,0,0,0,0,0,0,0,0,0,0,0,0,0,0,0,0,0,0,0,0,0,0,0,0,0],"sum_hessian":[3.8904094E4,1.9285584E4,1.961851E4,5.155348E3,1.4130234E4,1.2858726E4,6.759784E3,4.5169106E3,6.384377E2,1.9808656E3,1.2149369E4,1.1092163E4,1.766562E3,3.2244095E2,6.4373433E3,4.7773315E2,4.0391775E3,6.1034686E2,2.8090792E1,3.2535046E1,1.9483306E3,2.945559E3,9.20381E3,1.2035137E3,9.888649E3,4.6102512E2,1.305537E3,1.4350984E2,1.7893109E2,2.0775725E2,6.229586E3],"tree_param":{"num_deleted":"0","num_feature":"59","num_nodes":"31","size_leaf_vector":"1"}},{"base_weights":[3.7726602E-3,-1.6085777E-2,3.1948347E-2,4.2228445E-2,-2.692325E-2,1.06516704E-1,2.0639848E-2,-3.333652E-2,9.768469E-2,7.421061E-3,-4.1404333E-2,2.8110847E-1,7.099045E-2,